embedding_0: -7.0548296,-2.7511694,-1.2585809,3.9682837,2.181944,-1.4592543,7.340391,1.624191,5.4151797,0.8699148,2.0818985,5.9045863,0.55231595,-0.7071888,6.215573,3.725816,-0.8272898,1.5025454,0.056479596,2.991208,-3.8411012,3.9218886,1.0498987,-1.0935557,0.57123935,-3.5772152,-1.6162667,4.2422743,-3.6734023,-1.0087551,-1.2414362,2.1500413,-2.4129636,2.9548206,-4.521577,1.0194416,-0.80625,1.6633111,-0.8051507,1.4609246,-2.0394013,-5.7825327,-0.120065786,0.6957035,-0.7395661,-0.96523046,0.45088354,0.6050276,-5.536075,9.602204,-1.5423928,-2.0163352,-1.2627034,0.37596306,-4.9659786,-1.035203,0.057778433,-1.622433,4.3099203,3.0307598,2.4498725,0.47677797,1.5809016,-6.0964613,5.267241,1.5182644,1.1327045,4.3972497,-3.7050934,2.6995957,-3.9993196,-7.4282007,-5.322638,-3.506801,-3.8210335,-2.6536183,1.2869152,-3.2307959,-4.8384595,-5.4256935,2.1993449,-6.683218,-2.5093462,-2.5655608,-3.3007033,1.4157631,-2.2490823,2.118329,0.79624575,-1.865098,-2.750355,7.3347836,1.8210511,2.0311499,-0.4931194,3.0938303,-2.4301815,2.1954308,4.868092,2.5861578,-5.0825233,0.5607691,3.4565392,4.612874,2.5518827,-1.0594618,-3.002095,-1.6277442,8.7355,-0.35391587,0.9184231,-1.529596,1.210379,8.209513,0.9418592,-1.4433264,-0.80620927,2.9548402,1.6998236,-3.568764,-5.949745,-0.4981688,-1.7165085,4.430994,1.1966889,0.55382323,5.665195,3.2421916,-1.8005573,-0.59548384,-28.981928,-4.655233,0.009092197,1.6119126,1.4147459,-2.075681,-4.723545,-1.68343,-2.2492201,-5.308464,2.7589366,-3.4366148,3.6794412,5.3671093,-0.7697062,4.008644,-4.0925703,-3.570359,1.0247545,5.1011906,-1.283175,-10.663522,-3.5783348,4.992918,-1.0631009,3.5712197,-5.0505776,0.5019093,-2.341699,9.087932,-1.3838981,3.688832,4.573912,-1.6410679,-1.1946832,-9.696598,2.0078304,-3.7367253,0.4370322,-0.5791488,1.7936562,-8.644423,-1.6746994,-0.42310712,2.2657828,-0.2567121,1.5558088,-26.03163,-1.1264635,0.99273354,-0.14500596,-1.1694357,2.050916,-1.4632417,5.433491,1.2671394,-4.8408422,-14.500441,-0.3761897,-1.7650359,-2.0796645,-3.67192,5.7252326,1.1459665,2.3669405,0.34825417,0.59772843,-4.307776,1.5732313,2.0240777,0.38365287,-5.462308,-1.2335615,5.0866027,-4.266596,-5.644576,-2.6602578,6.106658,-4.918397,1.0421543,-2.367612,0.6601373,1.5071174,-3.27315,-8.668235,-5.474609,2.487347,-0.67669207,-1.7343442,6.0786657,8.688946,3.9864986,-4.4403906,-3.8210697,1.2070364,-8.89127,3.9854975,1.1791475,-2.4183042,5.299981,5.5038524,-1.759098,2.233163,-1.508572,-1.8167992,-2.9570272,-14.606849,9.297356,-2.8144605,2.4625435,-0.22914764,0.710312,-6.358033,4.6518965,0.4839923,-4.300085,-2.0947833,1.8689629,4.9569893,3.006788,-2.4575708,2.6943822,-7.097996,-5.677724,-0.9726361,5.087237,-0.8989737,1.0050507,-3.2523518,-5.9318266,0.11442098,5.3733644,4.528393,6.918227,-4.1533012,-4.460998,4.875361,2.5876374,3.0587142,4.126551,8.718774,-0.34422615,-3.9104753,-0.22701955,0.30491862,4.6362863,3.6938488,-3.950209,-6.329521,-4.76014,5.233769,-0.32254434,2.9723725,5.1720223,-8.609937,-21.065979,4.6005344,-1.2892714,3.4804273,0.4806167,-2.3652298,-2.4000962,-2.9582784,-4.87214,-3.4542193,-6.539332,6.7804203,8.359144,5.4895077,-1.2732899,-6.181562,-1.6107391,5.3516397,0.61993533,0.24396527,7.322402,-2.970973,3.3259814,0.41582912,-1.6183922,-0.76082563,2.16214,0.21449874,1.8873553,4.6231914,-1.5534778,0.9044046,0.2797368,-4.518889,-2.2051346,0.3722928,-2.5465007,-6.578669,1.3835464,-2.390691,2.101894,3.311492,-1.0901749,1.0133903,3.7605054,0.30741256,-0.8289845,2.190658,-3.4712358,-5.6271687,-1.9223455,-0.70793766,1.4063116,-2.9632356,3.805001,-3.1034942,3.127587,-5.980154,1.9343575,-7.758188,-1.0286523,1.3774456,3.5508168,2.1249676,5.1385746,5.021935,3.8190606,-2.696576,4.261002,-3.9525352,-4.8104844,1.561655,-3.094104,-1.7247034,4.0567746,-3.9261475,1.8758248,2.4079664,5.016459,5.1348658,-1.5411712,0.68905693,-0.11798238,3.0750618,0.65058625,0.58252084,-3.3068306,3.1620922,-0.702634,-2.49443,-2.5981627,-5.2091737,-8.784007,-9.229496,-1.6024823,1.9596604,-6.4729705,1.4499974,0.6058561,-6.0705695,1.6780592,-0.980881,-3.20049,-3.09705,-0.76041955,0.7856559,4.2550597,-3.1378708,0.05790998,-0.3286929,-8.114216,0.484811,-4.486435,4.911767,0.75272727,0.9222987,4.2995496,-1.4970354,7.366159,2.8099275,-4.777955,9.228176,1.8883073,-0.93063,2.4800127,0.16230695,0.16469365,2.194335,1.7850472,-3.699074,8.964975,0.9372415,-5.154063,-1.7708861,1.9160743,2.4839025,0.37673718,0.85983765,1.8317186,-4.759371,1.3069736,-0.33938044,3.193097,3.1347678,-1.8823961,-0.88694483,1.452164,-5.3348823,1.7516688,4.082987,4.5915074,3.6548004,1.3265991,2.5964715,5.2182875,-0.080682404,-5.4247775,-4.7766347,1.9695979,4.0277104,0.4792012,5.4881635,1.8646204,-3.5175776,-4.9680905,-1.9528656,-6.2093444,4.0159593,0.9311452,-3.5362577,3.327126,-3.429907,-14.091221,-2.8814886,-6.188102,2.337256,-1.3380867,1.3282863,2.5179222,-6.1971054,-3.087753,5.0271935,-3.75337,1.2703115,-5.4238873,-0.6840845,1.561495,6.3426676,3.8422124,6.2917776,-1.0573412,5.4079223,1.1641109,-5.0158963,-1.436278,5.713855,6.2205095,-0.20984681,2.8436546,-0.7914543,-4.393609,8.133306,-3.1415517,-5.1455617,-1.630432,0.67785,-1.2725577,2.7391005,3.4954877,-2.5282958,7.2565694,3.401151,-4.986054,-6.0232534,-3.3181226,0.14492676,0.8152937,4.193405,3.351114,-1.9581395,1.7509298,0.46681073,1.3833202,-0.66076803,2.9682353,0.95935035,1.9523104,3.63196,-5.39407,4.0062513,-2.1417441,-0.021408135,2.8556075,0.06009921,-3.1903734,1.7151709,1.9357297,2.2951078,2.7592688,-2.3618884,-1.9256091,-3.273176,1.1500776,1.6602216,4.585286,0.2984329,4.2252383,-2.8557148,5.3010335,-1.324189,0.18972595,-3.2167249,-2.960001,0.6529224,4.6602573,2.6967103,3.8883154,2.8231494,1.0010339,6.7619176,-0.9649471,-3.0122135,6.5074744,-6.397502,3.00283,-1.4282552,-0.5573422,1.9622416,4.002471,-0.7291459,0.2647496,5.795904,-5.8423944,1.1998538,4.1497064,3.8343093,-8.707789,0.6431505,-6.265897,5.038785,-2.1420703,-1.9145482,1.6825037,6.4682684,-3.940754,-3.7925682,-4.086649,6.8974805,-0.23261902,1.1984181,-6.212907,-0.24342334,-20.841215,-1.510786,2.540818,-4.804807,8.172786,-3.1349065,1.3456109,0.9906832,2.0128353,-1.83733,1.0889324,10.200601,-1.6843756,3.4032586,3.9742832,-2.4072375,0.6956684,0.92133135,-0.81065345,2.6036875,-0.87870365,4.671641,-2.9179797,-0.1081311,-3.5517812,-5.7763157,0.89095056,2.802148,-2.722662,-2.6069736,-1.8234082,5.166656,3.2045705,0.0050965464,-2.022826,-0.81059897,-2.8527539,4.000447,-4.9997616,-2.817153,-6.2637405,2.156861,-3.7377021,3.081325,0.72998285,5.201097,2.0316093,7.588077,2.9412048,-0.99345124,-1.6988527,2.1331851,-2.56062,-7.676915,5.5348086,-1.1142985,0.81795454,1.5036962,-1.5805935,-3.6626532,-2.6048717,5.0030212,-3.766945,-1.919286,-2.9283836,-2.495927,-0.3753085,-2.3997765,0.8408362,-0.87313604,12.420442,8.131424,5.876941,-0.89170456,-1.4589571,84.123856,-1.2381836,1.1111304,0.3288394,-4.9766545,-3.1204095,7.144288,2.4616249,1.1836702,-7.34551,-4.8494635,4.221076,-0.088016346,1.7109929,0.17664774,1.0256807,0.6683163,-1.6277905,-2.9378443,1.7846596,0.5699374,-3.6261606,1.4667997,1.2319484,-1.0612872,-0.8917861,-5.0390687,-5.1735396,-1.5814049,2.9551942,2.8175526,4.6672454,0.4139913,-2.6864853,1.8402566,5.5897975,3.011604,-6.508491,0.3511287,3.4453514,0.5154449,10.474671,-1.7540203,-5.732605,-2.9651768,-2.5703475,-3.6000555,-7.245147,6.450388,-1.0441049,-2.779638,1.9847953,-8.559703,-7.9475822,5.832473,-3.6978247,-4.8524685,-2.1596138,3.970198,-1.1217763,-0.38217378,2.5927866,3.2499835,-0.77244943,2.9963727,1.8276459,-0.41914368,-6.4509063,-2.0572326,-5.8188868,6.3990264,5.5222383,-1.7372551,-2.7767375,-4.597397,-6.1866302,-1.2393682,1.2778897,4.7621055,-0.14624473,-4.8629646,3.502929,-0.33395064,2.5123239,2.555699,-2.0598075,5.5311294,4.183366,6.433712,1.0562848,-3.0312245,-1.225221,3.880373,-1.533557,-3.9315715,-4.783013,-3.5028853,4.734547,0.41673636,5.382082,4.9875064,-0.09158807,0.75508106,4.0682178,-0.69688463,1.474297,-1.1298307,-3.1642346,0.73458207,1.0884639,-8.433686,5.7950296,-2.3342116,1.6699989,-2.2168748,1.9221877,0.2220854,1.09452,-1.8073545,3.2128634,-8.562585,1.4783685,-3.5472813,4.901783,2.4948766,5.671797,-3.3775063,3.9041,1.3647867,-2.067202,1.7006817,0.41662154,0.9998638,-3.0172849,-1.8416727,-1.8097091,1.7432544,-6.164565,1.5186521,0.8973643,-3.808287,-0.8333753,-2.7478387,5.4271646,2.8117516,-0.30490035,5.406382,3.685231,-0.58854765,-3.8187718,3.1452734,2.2377465,2.2374768,1.4693055,-3.278101,-3.9974265,-5.5372295,-2.051674,-3.9966662,-1.0325301,-0.5003545,3.2275813,-5.8486443,6.2125793,-3.929689,1.3171984,5.159325,1.6286354,2.2034237,5.6146574,-2.347044,-0.4442155,7.664545,1.2150228,0.4737623,-2.4460485,-1.5904679,-2.208238,-2.1191473,1.2863059,-0.51144826,2.9648669,0.5087158,3.975324,-1.0170887,4.025521,-0.92064553,4.3700075,-1.9359426,4.419904,1.5231985,-5.75104,1.6001337,-1.5790339,4.639913,33.74866,8.870711,8.640126,-1.667119,5.424883,0.45702776,-1.4279176,-1.1621733,-0.2135095,-1.3941939,-1.7446185,-13.721061,1.3207606,3.6260111,-2.3306458,-1.620297,-0.7704614,9.861289,-1.3716527,5.535603,-9.096925,-0.5815185,3.079504,-0.37055096,-2.1882706,-1.5514686,-0.6846377,-3.3877368,28.976267,-1.9093997,5.0518255,-0.1590908,-0.5587154,1.6934764,-0.8578461,-5.855272,-2.7817953,1.0768701,7.3815336,0.451323,-3.4513144,0.81318265,-5.057894,-0.48657885,-2.4260986,-1.958515,1.5902131,-0.11688314,4.60131,-1.3821075,-4.224548,-0.9823363,-1.8930469,-2.7061148,2.737748,-3.9835742,4.4992485,2.9099088,2.6948369,-3.4809837,2.7852314,0.8493514,-0.77312356,-9.793707,1.2519046,-4.067737,2.8974137,5.201105,3.969731,0.66551113,0.38337877,5.823976,0.82698923,0.47398174,-6.1936493,-0.20674472,1.7561622,5.3572927,0.635506,3.2471673,-3.5632467,4.7336774,4.0575905,-3.1284163,-4.094925,4.5638585,-2.1011631,-4.658522,-1.5263083,1.8906286,-8.864361,-0.22428983,-3.5772426,-0.48605016,0.3173076,-0.72515076,-0.5445009,0.07613432,0.44647977,1.8384469,-6.3762417,-1.2017149,6.6841865,0.17192744,-0.30206507,0.5331841,-2.6120987,1.1616343,-6.8355827,0.48431596,12.670621,-0.2003546,-9.566056,-4.792943,-2.0250921,-5.155479,-8.570833,-5.8169994,0.022899505,-0.066640526,-2.4255304,-3.6111515,-2.1293,1.6954427,-7.01433,-3.1848102,-2.8631086,-0.57013273,0.7801705,2.4470656,-0.49183697,3.392859,5.037234,-4.831782,-0.97366726,7.3989043,-6.826016,-1.712868,1.3565575,3.975294,-3.8641212,-1.6539829,-2.9599612,8.4770355,-1.1312495,-5.472068,0.12218774,-1.7783564,0.511554,4.4484906,20.35663,-0.3263907,0.22736381,2.9856324,-7.754016,-5.998702,-13.943492,-1.6296066,-3.1608992,1.6528556,-6.6789846,-2.7962348,-2.3612878,-1.1185918,-5.0634847,2.2939947,2.2379975,-4.4184737,-7.611597,-1.9038867,-4.3721557,2.6660485,-9.753929,2.988408,4.3295736,-2.648816,-4.05721
embedding_1: -6.3894744,-0.95771986,-6.54949,2.2551117,2.6797793,1.6526436,2.9464104,5.8205986,7.3035145,0.09258758,2.1661413,4.135324,3.067778,2.6197798,7.0632353,5.567769,-2.6078603,-0.84194154,-0.2396928,1.3006793,-4.554157,-0.53107446,-0.62428963,1.4191133,-0.0892982,-1.0426768,-3.0806093,5.591157,-0.93700784,-1.2877384,-0.6370797,-0.562482,-1.293881,1.7709721,-0.4749251,0.4671222,-4.0436788,1.6235824,-5.736036,1.5012081,-3.6152337,-3.342069,3.4903042,-1.1541595,-2.7888112,-1.9875453,-1.1650643,-0.48335785,-4.545514,7.6710687,-0.32240197,1.4122657,0.28079438,-0.81441444,-4.764626,-0.5298696,-0.23975568,-0.029528039,3.4418266,-1.8726413,-1.0364937,1.3780913,2.6808078,-7.4011297,2.5587544,-0.7440736,1.9473786,0.73250914,-2.2607875,5.089593,-0.2276023,-6.6153693,-1.2234277,2.2771904,-7.070579,-0.10803092,4.3715463,1.2590362,-3.3006961,-4.634879,1.10181,-6.4814243,-4.51899,1.1317463,-4.9249754,1.236906,-4.0580506,2.6097064,1.4475319,-3.425841,-4.7381477,6.871288,4.222055,0.9678387,0.25957787,1.42567,-1.8212308,2.7714293,4.809557,3.7566369,-4.2371283,-1.1617278,1.9238714,5.0034933,-2.50048,3.039289,-1.9147736,1.6957353,5.9081244,2.4579487,1.309677,-3.6013017,1.811824,8.446375,-0.45178956,-0.44677335,-1.0006418,5.30611,1.7334201,-0.8018757,-5.9196167,3.1980064,-2.1871378,3.40189,1.0132498,-1.5581261,1.2628119,2.755684,-1.8701147,3.2950387,-22.99385,-5.31316,-2.1842206,4.3822465,2.8384213,-5.142286,1.253289,0.2682259,-2.1764522,-7.659233,2.0380294,-0.7671545,4.8413157,-1.1223576,0.49050754,2.4056988,-2.8153603,-3.6520379,0.92133737,9.239038,-1.9348214,-3.5306668,-3.4642801,-0.3367867,-0.21823262,1.1029279,-3.8032138,0.48417294,-0.5084674,7.706284,-2.757998,-2.080807,-1.3566157,-2.544821,1.3312858,-5.9967484,3.5260952,-1.510642,-1.643187,-3.710239,0.842202,-5.026202,-0.009754553,2.3363364,2.855111,-0.6023806,0.96983314,-17.826073,-2.0927298,1.3187457,1.2473956,0.8219328,3.7197394,0.6754342,7.699565,0.7863037,-3.5599113,-17.96285,1.3019178,-3.123373,-1.837128,0.44027564,5.2669168,0.4753271,4.8505545,-3.2017038,0.68015176,-6.4723287,2.706598,3.89585,1.8465773,-8.120699,-0.92683166,5.4117675,-5.35019,-5.9452424,-1.032653,-1.6489183,-1.9034383,-0.2375706,-4.1989655,-1.3909183,2.3352852,-7.568952,-13.039478,-6.2425265,1.9883747,1.5248451,-4.670149,3.449268,8.201661,4.3435087,-4.3775125,-2.340052,0.33165395,-4.0184236,2.720605,0.6558648,-1.5944982,7.0724587,2.324428,-0.40117213,2.173954,-0.16847947,2.6429663,-4.164518,-9.872763,7.306458,-3.9271216,2.6108181,-0.72671235,-1.1228522,-5.267622,-0.60569805,0.7283442,-3.5282707,1.12523,5.0124393,3.1061149,2.3574402,-2.6825678,1.1756438,-7.6218424,-5.3099074,3.7047195,5.9010377,1.944313,-1.142079,3.3152065,-7.9610243,1.5228871,2.1395695,0.3000384,-0.14215961,-1.081101,-7.039607,2.616603,2.0056894,2.5220208,-0.8415871,6.486772,3.5278234,2.2774243,-0.05707232,1.7576536,4.2775373,-5.173898,-2.3657992,-4.6813216,-0.52403814,5.7800827,3.014341,0.94554496,1.7441612,-9.814285,-25.849813,4.7910347,0.21777034,-3.1242664,2.4388046,0.6282981,-0.6042889,-0.77461576,-8.9023695,-6.381753,-8.622281,5.04803,3.9090378,6.680107,0.4093429,-4.5139875,-4.7489944,2.2769578,1.7184864,0.5024531,5.0370836,-2.2128458,6.0481277,3.379501,-2.573587,-3.3172913,1.0918955,-0.09204402,0.104495645,-0.03441368,-2.0422723,1.554702,2.337297,-6.0345807,-2.2229364,4.0383472,-3.8269002,-2.618874,-2.2438679,0.36153954,0.18956596,7.442081,-4.041646,0.51241994,2.6469646,-0.6289949,1.346271,1.9253258,-1.3554201,-4.1041975,2.5693674,-2.4250011,2.0102117,-1.0767351,4.745211,-4.6179166,2.76414,-5.901555,2.4863586,-8.251741,-0.026403582,0.15168303,-0.060788926,-0.019840844,-0.6213751,2.6882882,4.196168,-0.1664641,1.366692,-2.9733462,-5.1524215,-0.5187786,-1.9698844,-1.0253499,1.5479689,-2.522086,-0.4798661,5.971594,0.6555219,4.056627,-3.6615045,1.5465668,2.7904696,1.7855867,2.0582895,1.847758,1.6825776,4.4035506,-0.63106894,-2.7839735,-0.74612945,-5.310814,-9.31931,-9.163364,-1.9630569,1.4444535,-0.8106712,1.6013813,-1.946442,-4.568739,1.9080776,-3.8782892,-0.06582454,-2.8943193,0.050217204,0.32694966,-0.45057544,-2.0659752,4.5934234,1.9241705,-6.484227,2.9380956,-5.0311785,-0.29858482,-0.47313353,1.1888049,-1.5806161,1.1474658,5.0213294,-0.63286334,-2.9951875,6.1926866,0.45220998,0.14645833,-0.69047564,2.5255587,-1.5262722,3.341195,-0.027692262,-2.7881649,5.501445,-3.4118247,-2.2177887,-3.82792,-2.8481667,-0.87907475,0.73340404,-0.34973648,2.3806305,-1.7752342,-0.0705533,0.7199438,2.999377,1.0761285,-4.541181,-2.620843,2.0769522,-4.553528,2.5723524,0.8449993,1.9179276,1.4242231,8.479243,4.07129,4.7549367,1.1212344,-6.539283,-5.224009,-4.592063,1.044126,-0.30423275,6.201829,2.9765017,-1.5024723,-3.6274295,-0.9982449,-3.3880432,5.1050515,2.659181,-4.2158756,0.020017376,-0.11152786,-13.159552,-6.591503,-2.1600695,1.2869076,-2.9217267,5.382137,-3.1502764,-5.931756,-5.925861,6.5696883,-1.1277416,0.010254044,-3.2865236,-0.085324556,3.3126109,6.8567696,3.4780579,1.7052929,-2.804802,6.893255,-0.7643836,-5.295227,0.41729555,4.7370496,3.4683194,-0.8997379,1.6776599,-1.2963703,2.3842494,9.763651,-4.1036277,-1.7589109,0.48236197,0.32567796,-2.1223133,1.7195504,-3.1157904,1.8921658,4.661811,1.783255,-2.443371,-1.8940364,-0.7943852,-5.6786356,3.8083942,-0.15269338,2.6591125,-0.84779227,4.2813177,-3.5502343,2.0207887,-2.3019664,3.6730108,-1.5867952,-0.4686454,1.3313835,-2.6660492,3.915549,-1.6390688,2.3060153,0.19236441,2.8966146,-1.2155035,1.3225648,1.2565573,2.8899283,2.926827,-3.843695,-5.722024,-3.3211322,-0.8246961,1.8936507,-0.43305993,-0.4166631,4.295501,-1.8686854,0.5784216,1.1914753,-2.8188512,-3.7364469,-2.5962203,1.4532775,2.7320225,-1.0709563,2.4197853,1.5434867,0.63877165,8.942113,-0.40357444,-5.5738115,6.667063,0.5469659,3.3219352,2.8415878,0.24097352,-0.18335086,4.23715,-1.4704218,3.319696,4.798895,-1.3352398,-2.0433435,2.5353642,5.710541,-6.690128,-1.3907106,-7.4662433,3.7004185,-1.4683976,-1.3986297,-0.60109615,8.522911,-6.584274,-1.5251637,0.6808301,6.2552896,-1.7622435,1.8627642,-6.032939,-0.22578406,-18.80514,-1.9393034,-0.7979466,-7.647655,8.039979,-2.2670095,2.605556,-1.170386,2.7120457,-1.870924,-5.2591133,12.297309,-7.085724,3.2409492,6.5598135,-5.6477175,2.9967127,1.697673,-1.6347795,1.500457,-0.726673,4.747831,-2.1797848,-1.9776899,-0.7957851,-2.8856359,-3.043783,2.4624248,-2.85278,1.5751463,2.5621197,2.935655,4.519181,-2.6357763,-3.3292336,3.4608505,-2.335055,3.6592882,-3.8257952,-3.740415,-2.2978559,2.037545,-3.1478984,6.749692,4.938773,7.0374546,1.7595258,7.3830566,2.947495,-1.2065494,2.406574,-0.29763278,-2.7135868,-7.177866,3.6811366,1.4228504,-0.35599276,3.2348897,1.1898509,-0.6640014,-1.6318643,4.6598024,-5.36559,-0.31816697,-2.3029046,-7.274891,2.057595,0.69206053,4.9408393,1.3836379,9.842062,5.2724338,0.9282037,-3.5065253,-1.7300367,85.87832,-3.3572512,-1.6137607,-4.2011704,-4.691512,-5.2914534,9.46203,0.8446715,3.2328064,-2.5735643,-2.9528434,3.591185,-2.6879737,-0.97492903,0.29765657,1.8462585,-3.1802645,-3.148571,-2.685203,1.4931536,1.8065717,-5.282917,-0.13599214,-2.595589,2.0710194,5.5702004,-7.3169084,-6.5304303,-0.23074567,0.7337944,-1.3559128,3.8093662,4.102448,-0.5571969,1.5560622,3.2310288,3.1478102,-7.453488,-4.735796,5.745301,3.5331678,8.183548,-1.4739931,-7.062354,-4.453848,-7.1548557,-0.10989041,-9.977883,7.3616266,-0.1750181,1.0212916,-0.38038105,-2.5839415,-5.5362277,3.6095948,-0.0029757204,-5.324726,-0.14891838,6.6397657,3.5048442,-3.3750124,-1.3256905,0.12535237,-2.2892027,3.0110304,6.24714,-0.92695904,-5.5957236,0.34308958,-5.4369526,9.441262,5.6229157,-4.002728,-4.257463,-2.9913054,-6.2876077,-4.95911,-1.0372665,3.7090921,-0.33597776,-3.7537475,1.2337757,-0.28581682,3.066561,0.46127334,-4.7192874,7.1455173,3.4251695,3.405679,1.6301353,1.3024173,-3.0387084,0.39505374,0.8105789,-1.9983037,-0.50782603,-3.2197444,0.21604979,1.2980019,5.9313707,4.124031,4.9243536,2.2456014,2.9968488,0.7675658,3.7712204,0.64647585,-4.9413786,2.0474448,-1.0228806,-7.468134,5.8177814,1.4287891,-0.22922772,-3.9532998,2.8158255,2.5517766,2.142115,2.1404254,-1.9466239,-8.678494,1.5551262,-4.7338963,4.7441163,-2.0516107,4.546542,-2.94182,3.125079,1.0444398,-3.027054,-3.5319314,1.2936075,-0.5264122,-3.3756561,-1.9396447,0.21209289,4.0947294,-6.1013827,1.9517775,-2.1255014,-4.7904143,-1.676373,-2.9947317,7.413648,4.1641808,-2.3613908,1.8146414,3.7064035,-3.5795658,-2.9713423,1.1265897,2.4647148,2.1672292,2.9319363,-4.7611732,-1.360787,-3.5774593,1.3344424,1.104241,-0.624557,-2.306051,3.8889794,-4.6203055,2.784068,-1.6344624,3.363043,5.844264,2.059073,-4.3637505,6.0001783,-2.8387623,-2.2058914,6.2495756,0.5467974,-2.585334,-2.5424905,-1.2796787,-5.1067123,-0.25613275,3.1433783,1.3229306,3.879234,1.452941,0.25707027,-4.1822977,1.5992151,-1.4140874,7.9001265,3.809885,1.595289,1.0387126,-5.401245,3.4090729,1.7377363,1.4691801,35.25901,4.0702114,5.2127137,1.0299363,3.1067383,0.7482069,-1.4310526,1.4449053,0.72171175,-3.3261123,-4.128673,-5.0174794,1.7562964,2.2698202,-1.8603681,-1.8894039,-3.2161572,8.766389,0.8955769,4.947526,-5.589498,0.61365545,0.48315847,1.0205132,-0.11929175,0.24922216,-2.5231175,-4.3464985,26.304968,2.0549629,7.8741093,-1.5006452,-0.6004739,6.5948944,-1.3765656,-4.985506,-4.51811,1.3759472,6.3873315,1.4025149,-3.426315,1.6797732,-3.679976,1.0903769,-1.892937,-1.6918216,1.2582558,-5.8972306,6.0491524,-2.588831,-0.15576798,-1.9813216,3.1139932,-0.9603194,2.9969351,-2.3937,2.856956,2.0948389,-1.5723745,-4.803858,2.7246146,-0.77381307,0.5875846,-12.762878,-0.7438458,-2.296802,5.2727175,2.7306595,0.44958222,0.70130795,-1.4797844,6.341715,-0.25110137,2.390749,-0.6308581,2.6170506,1.1955435,6.022441,-1.9079653,-1.7251958,-2.6518986,1.0987545,3.3305984,-4.4340177,-5.4063993,3.4817963,-0.84740597,-4.862601,-1.7580999,-2.6973083,-5.8997717,1.7382957,-3.9549346,-1.5717547,1.3065933,-6.758592,-2.1212664,1.2411509,-0.9430182,0.5839472,-4.1224523,-0.9994942,3.778907,1.4038914,-1.9606953,1.7356527,-3.0957623,4.017034,-5.525077,1.233232,16.208618,-1.8391595,-5.9940524,4.384104,1.0841026,-5.5544,-6.601557,-9.518556,0.22691174,-1.5704949,1.511913,-1.1799544,-2.1905568,0.08351414,-6.762199,-2.5627055,-7.023957,0.5406914,1.896681,0.56302613,-0.439481,10.869875,3.892754,-3.2731192,-2.7523506,1.2911211,-2.714847,-2.1323566,-2.0625134,5.7243752,-2.2486386,0.8286249,-0.84108365,6.043107,-3.2508879,-6.486098,-0.90060437,-1.5023601,-4.1977205,-1.74663,14.682303,-1.1049935,9.922045,2.8875794,-4.0859933,-5.871991,-11.375393,3.1059191,-2.4595501,2.6884842,-7.100756,-4.4869156,0.70527065,1.7144649,-4.2246842,3.3821738,-3.486166,-2.1838596,-7.910982,-2.815269,-3.286486,3.8525267,-6.4650865,-1.3147279,3.867043,-4.1399937,-4.62567
embedding_2: -7.3785796,-1.5720726,-5.7630057,-1.1391544,-0.5846797,-1.6139728,-1.1161238,0.8854348,1.553725,0.3887215,-0.7707223,5.1477966,-7.747313,1.9845985,8.998884,3.202139,-2.6672235,-4.9154887,-0.40853903,2.1075912,-4.4456844,6.6645746,0.28126347,5.468704,-10.175905,-4.1385813,-0.58714634,2.4063828,4.1894107,4.163409,3.4362438,2.7243695,1.2611295,2.692506,0.7864174,0.71983135,1.6514283,1.5933406,-5.682638,3.4210262,-3.0805557,2.741106,3.2571042,8.37462,2.9896793,3.8336833,2.5250857,-6.950265,-3.1387455,5.1391687,-3.7615573,4.737819,0.120860785,2.3677313,-6.4485903,1.5212512,2.7227304,-2.5113382,2.1905527,1.9614623,-6.640796,0.38125208,5.677131,1.400158,14.152142,1.6943109,0.1737836,2.5350404,-4.2339163,0.34306684,-8.265564,-11.788978,3.8953764,2.6223497,-4.721183,-3.5593653,7.4127207,2.2805512,-1.0537906,-3.4936545,2.8419201,-1.150202,-1.4077321,-1.9578202,-2.0954137,1.180159,-5.471122,1.9626284,-4.91703,-3.2412708,-2.8405907,6.460535,4.4285097,2.3756876,4.972139,1.0189407,1.4355041,-1.1293194,5.974022,2.0142918,-0.5342208,-1.2565448,-0.016214244,7.63936,0.5149129,2.4779985,-0.3601647,2.3470507,6.360887,2.8390403,1.5264235,0.26195428,3.5147493,6.8713393,4.3515177,-2.018808,-1.6959066,6.2160954,1.798861,-3.7735655,-0.8045999,-2.1028967,-4.0119286,1.8613504,3.7247505,-2.6798742,0.7506145,2.129523,0.06521601,1.2314965,-13.428928,-4.480917,-5.133509,0.43971765,0.8664128,-4.6059084,-0.70463246,-0.56476176,0.7697166,-4.7007504,10.122019,-3.6651945,1.1073949,6.01637,0.15852806,2.485182,7.158535,-8.1631365,1.3075068,0.7452406,-1.0324188,-2.8298883,-6.1379957,0.5079959,1.86426,-0.29724532,-1.1169177,3.5031528,-5.619162,8.3098,0.69383454,-1.3379151,2.2026412,-0.27075246,3.4474723,-6.6430306,3.5105581,-2.196967,-0.50571835,-0.043499645,-0.28175855,-9.163237,6.5970545,-1.0202678,0.4936508,2.6501226,-2.0236118,-12.890646,-1.4001101,0.21448883,-0.22109778,3.9900575,2.7193263,0.5126084,5.0374904,0.96677786,-6.0136585,-19.910648,-4.1389337,-1.4042072,1.548493,-2.865663,3.3331127,2.418559,7.9101377,-1.4388019,2.98189,-5.4591284,0.36846027,0.86273736,1.5369854,-3.657622,2.2796643,2.98999,-5.9238586,-3.8671541,1.4345344,6.4139447,-5.0796623,1.3843853,-3.6878445,-1.6849291,0.9610766,-9.34209,-16.406279,-12.576194,5.007233,-2.1234803,0.8445678,3.0539212,5.9595156,6.7220726,-2.8554194,-3.4959352,0.5152153,-9.619301,-0.46177623,1.3196383,4.860244,1.3109081,9.630303,-1.709169,3.4618444,-0.7537992,6.430891,1.5302544,-6.517251,0.6399736,-4.4859033,1.047208,1.5470604,2.8800166,-10.536715,-0.9385321,0.77942234,1.5448909,5.2665944,3.7210336,0.50498205,0.035317667,-1.7720999,-7.204976,-6.125834,-0.14627297,4.964526,3.7694235,-0.6050784,2.3315437,0.83508956,-3.861282,3.470623,4.24386,6.188409,1.4362801,-6.051461,-4.2577505,3.9951167,2.3885295,1.1060386,6.3380876,1.7121631,2.0518959,0.013029723,-0.105794944,2.256073,5.359623,1.235133,-1.3119965,-4.8184485,-7.186251,5.2572813,2.1191702,3.3051665,4.9686246,-15.897373,-21.021729,5.5417814,-3.2575548,2.4891367,-0.86210454,1.5279301,-3.360468,0.8706107,-3.978011,-4.29717,-3.2404456,4.4723043,7.3833447,3.6865106,1.063914,-7.707222,-3.7635176,-5.2793736,2.1960135,-1.195996,3.5485423,-2.3316963,8.079566,2.6322942,-1.9238253,-1.0381159,0.86608654,-6.0893803,2.9862797,-1.3772941,2.0402348,-0.21654794,-1.5524577,-10.715564,-2.3698106,4.388275,-1.3892553,1.6404816,-1.5651186,0.8709974,-5.238861,3.6491723,-1.3980337,-5.6879377,2.7885077,-2.396818,2.5205529,-2.4946523,2.0202706,-8.048052,-1.7904619,3.894214,0.4524856,-6.325404,-1.2435234,2.2697518,2.9948905,0.33959812,2.7467346,-9.807816,-2.155783,5.19952,2.0051959,4.091524,4.148094,0.4348758,4.083328,2.5476882,3.996072,1.5463835,-6.1348486,5.4588327,-6.791176,-6.5849786,3.218142,-7.894166,3.2257297,0.03389867,0.0111740455,6.5873175,-2.6704872,0.7527252,2.3780508,-1.1766622,5.405953,4.7929144,0.002696661,-1.3102603,0.51680434,4.2251577,-2.593151,-5.256108,-3.6242065,-5.372002,0.564199,4.7329483,-4.690469,-0.78902966,3.0589724,-8.252378,3.663877,-3.7738287,0.26650748,-4.1237507,1.5908703,1.1883069,6.439511,-4.4878063,1.7323387,4.6679273,-3.3441534,9.470399,-3.5880036,3.380003,0.0615494,-3.8984413,-1.4387518,-1.4604038,7.016066,-0.6687424,-5.326238,5.4724197,2.1205995,7.1566525,6.6730385,1.7029761,1.7255154,3.9996352,-0.13239394,-9.2160635,2.5934002,-6.1473866,-3.5506973,-5.1051006,-2.3199434,3.7116654,-1.8146604,7.6660023,2.5815392,-0.8436212,1.664529,-0.73591894,6.018619,-1.3653257,-5.0283694,-2.6563816,0.1255074,-0.7044401,2.3636408,1.0759913,4.062489,0.2517755,8.582272,3.2661262,4.0387363,-1.454683,-6.7891912,-8.200845,-4.709944,5.008221,3.2440012,3.7414513,2.541382,-2.513952,-2.4590604,-3.0730014,-1.0828762,4.5027757,-3.5938375,-8.50627,5.0986233,-5.908472,-14.099258,-3.361187,3.5977163,4.419742,1.7519021,2.1863785,0.45870802,-4.038378,-6.1393304,-0.67838556,-6.7828026,0.9534405,-7.9104795,-1.0673448,2.9057655,6.307424,11.240359,-2.268897,1.421076,1.184074,1.9615558,-2.760527,-5.4183426,3.8456774,5.4599304,1.7753339,2.1893284,-4.0441337,2.0164526,9.568273,-6.969415,-1.229778,3.046327,-0.8450014,-0.49271154,0.79644674,-0.29246864,1.5404383,15.445489,2.083619,-4.4088354,0.7488953,-2.8455212,1.9315513,8.097598,-0.09379371,-1.3737984,2.9045906,2.5593219,-5.0598135,-2.8809495,-1.0296862,5.537884,-4.1967993,3.621316,-0.110367954,-6.391208,10.629088,-1.6386973,-1.3059157,3.5000532,-5.1462936,-3.6990087,2.9879665,2.52223,-0.6167259,0.28156444,-2.2785199,-2.0731905,-3.6625004,1.0855159,-1.3157032,3.6724274,3.7946272,2.8928142,-7.8179903,-0.48050696,-0.2143484,-0.6024282,-2.6643305,4.185504,1.5446527,5.2269907,-1.0717826,5.456958,3.9590216,1.2164,2.6767032,-0.41409615,-4.8840556,4.638328,-0.38136405,1.6925551,0.9835345,-0.8680021,4.8077383,1.5076803,-3.1474307,3.9592223,8.80848,-9.941569,-1.1834974,-0.04140633,5.444757,-10.099489,-0.12990329,-2.291928,4.488421,3.3351715,-2.9194083,0.12737063,5.4750733,-6.570178,-8.355265,0.72443473,6.194694,-0.033350516,1.3485639,-3.1959891,1.802608,-10.873941,-3.737032,1.4096771,-3.6401913,-0.10029802,-4.8014417,0.88246363,3.3266335,-1.2781217,-8.101764,-3.232548,13.32584,-11.581097,1.950041,3.7608442,-4.5435014,5.928845,-1.2667655,-6.4734473,4.3699594,-1.4279078,1.2043806,1.3085809,0.41503105,-6.845629,-0.76905024,-5.9964733,-2.3845973,-0.132093,-0.8441226,-0.014460311,-2.793572,5.208253,2.3896327,-3.0996168,2.0660377,1.0335821,2.0617821,-3.9962924,-10.264479,0.8575645,2.299055,-0.11107004,7.129455,-0.14257851,-0.41699874,1.6375841,4.8317256,4.003101,-1.1291752,-5.7526884,0.4233201,-0.9636593,-5.0660906,8.301943,1.1255144,4.5274925,1.64694,1.3935282,-3.3378334,-1.9629303,3.561942,-9.308599,-3.6027515,-4.438913,-3.5706983,-2.2797985,-0.9796658,3.9465282,-2.8389468,7.947819,1.0698328,6.3630614,-1.2564862,-1.9363643,66.31292,-4.716537,1.7517294,1.5990946,-5.4862785,2.3788166,5.8571014,0.9058133,1.4306283,-5.1175814,0.61336756,7.7757883,-3.077306,0.62919575,-2.3735206,-0.28386322,-7.4591885,-4.8210864,-2.216348,0.7106106,0.3366025,-8.325137,-1.544645,-2.809748,3.6131558,3.9944777,-6.6556144,-2.6421766,-2.9579778,1.8500347,-1.380879,1.5637383,6.992072,-1.1731827,-0.29588476,8.86165,1.0572418,-6.2304926,-1.456467,6.431532,7.965058,4.842051,-0.0679782,-4.9118805,-2.9141903,-5.1055655,-3.0548105,-11.897704,4.932884,0.41644028,-0.11052853,2.5731328,-6.9736543,-1.0777901,1.292743,-2.879554,0.68135387,3.5804985,10.158061,1.7268084,2.4398708,-3.7335665,2.2138,-8.682472,2.7283807,-1.8746834,-4.3395095,-4.742593,4.1551127,-3.7255042,5.9749165,4.28495,-2.076988,-3.4238665,-4.444939,-2.2731142,2.37012,-0.27819428,2.957257,-1.1762259,-5.4946947,-0.093741894,0.21465246,-1.452099,-1.0961752,-1.9775997,2.0029511,0.53145313,1.3033955,1.5791937,-2.2510216,-0.3315079,-5.3776965,4.6158743,0.38484037,-8.298753,-6.6886177,1.3983246,2.3666565,4.842771,-1.6493062,2.3592393,-3.2878814,0.7827693,-1.6044278,8.144298,0.63475055,-5.8683248,-7.1290793,-0.8560488,-2.5174396,8.8198805,-2.9642816,0.90266585,-8.710254,2.4785037,-3.7937117,-4.4800053,0.59861684,-1.0206174,-8.330643,-1.8389256,-5.607518,2.43601,3.1527326,0.38377893,-1.7076856,8.0877495,0.16365522,-2.359342,0.16839041,-5.7504053,2.3110576,1.3088455,2.16112,-0.07569886,0.5751293,-4.4770665,0.06660424,3.5972707,-7.9472237,0.026489424,-5.335798,-3.5337973,0.54311997,0.53891784,4.8098083,3.6273,-2.912958,-7.0971446,0.87854,4.75741,4.0334244,-10.282313,-7.2233744,-6.7033286,-0.47341153,-3.5174205,4.1333766,-2.649826,-1.0782652,1.6468786,-2.7323892,0.99590963,-3.9499671,5.526802,-0.5649218,2.996479,-4.744009,2.9810405,-4.1021495,-2.5326486,10.092389,-4.6417117,3.3357763,-0.06953096,-1.0619218,-5.4865284,0.59299093,-3.594229,0.5999238,1.1916662,1.4320743,1.8650901,-2.7169778,-1.8571596,-5.182776,3.6383758,3.2383447,-0.35786727,3.1313472,-7.2878876,-0.65643764,1.9070207,4.6172976,20.504402,0.31779143,4.6336403,1.1981695,4.9706182,-4.6019,2.4840426,2.0452905,4.758786,1.152255,-2.9657745,-8.456726,-1.4076283,-0.001992196,-0.5740694,0.17476487,-2.0934741,11.576664,3.8069625,12.674064,-15.120674,0.34546345,0.6524413,-8.125401,-0.97524077,1.8489116,0.5338018,-4.506248,29.415993,0.99535257,-0.45290932,-4.8651004,-0.54228956,3.1240475,0.5382536,-1.4867957,-0.05741287,-3.8114967,-0.94409144,0.65328205,-2.8584623,-0.12932335,-0.68983907,-2.5015035,-5.0317674,2.303332,0.46807656,-2.635079,3.2012994,-1.7055054,4.3949275,-2.36288,0.8098112,-3.8866835,2.5066862,-4.178537,4.380144,-1.3463993,1.9545771,-3.5461905,4.0611196,2.808177,0.5722417,-11.483114,-0.47528058,-2.0421624,2.2443118,5.1252155,-2.9158714,-0.94171125,1.743213,1.8364615,1.7442651,-4.236051,-1.4524838,-1.3684305,1.1547264,8.390504,-0.64272934,2.15299,-3.3712752,2.563048,0.65801686,2.64668,-0.9606379,1.5959126,-0.68944263,-6.8079624,-7.9722657,-4.1457696,-4.2530394,2.1765451,0.9622306,-2.568408,3.7462664,-3.712336,2.1509519,2.225077,-2.2167594,-4.6935043,-0.64661807,-1.9222168,2.0017173,-2.2647877,-0.20690307,3.90712,0.1259569,-0.2421073,-4.666248,0.3506819,18.44958,-1.669543,-7.4581375,-3.7616706,2.7206838,1.4895,-2.4174478,-8.899347,-2.2531667,-3.800323,-2.9431643,-0.86932075,-3.6207492,-1.0823147,-4.247928,-3.2060013,-6.3917313,0.22859497,4.7036467,4.5278172,0.5658778,4.879419,-0.7350916,-4.054991,-7.1637993,2.8960545,-7.445743,3.2331467,-4.719531,10.122295,-3.0536737,-0.27761358,-1.6703522,8.321233,-2.2350364,-1.6765231,-3.2781777,-0.4179822,-2.3896146,-2.107797,12.126114,-5.78068,0.47538435,-0.75886583,-0.57613146,-0.031652432,-5.636792,4.269345,-2.6890075,2.7087467,-13.487553,0.55650795,1.2442862,0.55301225,-4.2611365,3.584897,2.248735,-5.6888857,-5.7772675,-1.2565241,-2.798664,2.1922312,-5.2519283,-3.6048994,8.010227,-2.156761,-8.376531
embedding_3: -4.232078,-3.8799405,-6.7036037,0.7832847,-1.7535281,3.5614636,-1.5170462,1.7980677,1.1638659,1.6884264,6.7315826,8.412231,-7.931545,4.322505,12.453954,3.2126894,0.204546,-4.893285,1.0414208,-0.41524783,-3.686955,8.721993,3.7666879,-2.8702765,-9.385294,-1.5697939,0.5039439,4.409676,3.3418581,1.1560189,2.3080387,6.555359,3.0970905,4.6136746,1.7995801,-0.5771555,0.35666966,-1.2535418,-5.346066,2.527987,0.49425727,2.3296013,2.1379383,7.702981,-0.94741195,1.889625,-1.6774678,-0.79687834,-1.6796302,6.350724,-0.7889543,2.8046436,2.1946588,-0.06780099,-4.922765,2.3665664,1.1058869,-1.5519806,0.81081223,3.9974492,-8.358347,1.0797821,4.3646703,4.723099,11.348517,-3.2928858,2.0079675,1.4979874,-8.993055,0.9578637,-10.50209,-12.789941,4.2782984,7.1630397,-3.7458386,-0.7086554,3.6252863,0.30070066,4.00717,-2.0297096,1.759767,-3.3229597,-1.2712978,-4.437981,0.102995805,3.2884398,-4.533025,0.6459649,-2.4835792,2.4815855,-2.8622086,3.0585866,5.3010163,3.6156948,6.3124495,0.9235865,-3.732585,5.541262,4.267464,6.557181,5.2525244,3.1825628,0.03875547,5.020334,3.8776941,4.366549,2.1564667,1.2707967,1.6316972,2.417769,2.082372,-3.5363812,3.158692,8.072835,0.6895708,-0.13217425,-1.1805339,8.276885,4.2963467,-2.5116124,-4.614417,-7.1778207,-4.0651927,1.0342036,7.9599266,1.9241449,2.0403156,1.7094424,2.0766423,3.0849776,-14.138237,-3.684323,-8.780771,1.3675827,-0.98736525,-2.6574502,-0.40324733,-2.400275,1.9505264,-5.5198517,9.267733,-2.2615595,-1.8239233,5.3170705,-3.3611248,4.8600054,8.500917,-7.3794017,1.531875,3.0744834,-2.1859467,-3.9009576,-5.6963353,-2.6423073,4.231559,0.9836476,-2.5989993,4.363694,-3.7687654,6.70308,1.710336,3.2508395,-0.29324606,-0.27901787,3.8694983,-6.4644136,6.0534563,-2.9352357,-1.2939178,-1.3578377,4.618329,-10.928245,1.780042,-2.2568474,-2.2185178,-0.54435134,-4.276566,-12.00484,5.9439473,-3.6969993,3.013192,1.8739119,7.9867663,-2.1937058,-0.5268131,-0.7370846,-7.142772,-19.921627,-2.0219212,0.753744,5.7004514,-5.2466445,1.8186535,0.9577976,6.617816,0.95419663,2.682527,-2.9440603,-0.66817635,4.658442,0.94913757,-3.6357262,-3.5723927,1.0214049,-6.26165,-6.317765,0.30430478,5.8393517,-5.010538,0.91792065,-5.97501,-3.7321045,4.37771,-8.104416,-17.631668,-11.978569,4.317687,-1.7504257,1.5357624,1.4262133,4.316711,2.8156962,-4.439432,-1.408592,1.9139671,-8.952568,-0.16948894,-2.4768512,8.04132,0.89733,7.167385,3.3970976,2.2753375,-0.6377809,7.9352794,-1.0919498,-5.2935853,5.3206334,-9.140516,-0.54444665,-2.502513,2.4547918,-13.322722,-0.8852757,4.8859806,2.0551798,5.566981,3.1682057,1.961732,1.8427368,-0.3099703,-9.2953825,-3.0143325,-0.42701536,3.0653305,6.2172246,0.4286182,2.0247953,-3.7801087,-6.138592,5.555081,5.4420424,9.056265,5.390266,-7.501098,3.0115466,4.3252,3.1782508,0.28006762,1.3138671,3.7052732,-2.7329993,1.7157171,-2.149195,6.055659,4.867955,1.1439103,-0.36621127,-4.064499,-4.5321007,4.28425,5.166491,-0.28494313,4.2176976,-11.436161,-24.750212,10.959882,-1.9758878,-0.084417276,-1.0495694,4.777823,-0.29945529,-2.7508266,-2.110961,-5.2984776,-3.4357054,4.0119247,3.192208,9.266663,-2.4319055,-7.6178045,-7.275211,-3.6575553,-0.782358,-0.27090868,8.074379,0.6346338,6.2653046,4.077809,-4.8641596,-1.8375056,-2.3741114,-4.600936,1.0686427,1.5775694,3.8538604,-3.2346294,-2.520943,-7.896865,-3.5902996,3.295019,-4.675834,0.9665015,2.0691047,-1.6386604,-1.1002622,1.6336836,-1.722845,-4.296661,6.1825094,-6.9182987,1.5033534,2.557077,5.325116,-9.160146,-2.985605,2.3933969,4.8042464,-5.8073654,1.0032858,4.6344986,4.5978823,-4.858618,-0.1785935,-9.57045,-1.3989551,10.7973175,2.7631345,3.8047109,3.072476,-1.0126461,4.682384,2.8118505,3.4692984,-1.512672,-12.433733,5.2322044,-3.3902707,-3.2005405,1.0687785,-9.4936,-0.08159611,1.0697925,4.8901663,7.2645206,-1.8565437,-0.4706592,0.8213635,-5.04393,-1.4135484,4.7571526,0.6905638,-2.0915082,2.001914,0.8698498,-4.177773,-5.1742826,-0.8543838,-9.884109,-1.8067399,4.0997057,-1.7400151,-1.8938496,1.2276706,-2.815764,2.8791618,-3.0403047,-1.1616333,0.45548207,3.4221606,-0.13203028,5.2591395,-4.526811,2.0483127,0.18044947,-6.1588893,8.224561,-5.481405,4.0077567,1.4905398,-1.7681772,3.9716003,0.08132803,9.606939,0.66121954,-4.158895,0.81888294,1.911802,9.945497,7.5596447,-0.9429261,4.274301,-0.09970879,0.6694571,-6.0623136,0.5015825,1.410411,-3.9681516,-4.9633117,-2.1761992,-0.7494738,-0.57505167,9.452786,0.32597294,0.82597715,-2.3869023,0.1739826,6.3164535,-0.25177714,-2.2526114,-3.3052578,1.4895054,-0.46359137,0.7846054,1.5272677,1.9619739,1.5461156,10.32543,4.754609,3.09394,0.64297384,-5.4296045,-5.396453,-4.3907046,6.450926,1.5036354,0.73842144,0.8339732,-2.7638807,-2.8073497,-4.4211197,0.18856438,3.4087594,-4.174348,-5.216862,4.3081603,-1.8740138,-13.468065,-2.9854462,0.99183756,0.18072857,-2.050461,3.0077868,-0.66775775,-1.5499097,-9.258075,-0.7116887,-2.264815,0.8297181,-1.4513034,-1.1962639,2.7408423,6.004606,11.363924,-0.37200657,5.2457523,-4.3769217,-0.83209145,-0.3919979,-3.7833407,4.8200517,8.32173,1.8417556,1.7171535,-2.0494757,1.9988517,6.568723,-5.3708854,-1.5391551,1.8858254,-1.1576961,-1.8500338,0.8325042,-1.7933972,0.35776508,10.937987,3.297518,-1.7119218,4.2608857,0.48420677,5.104403,5.083494,-1.4359095,-0.24995485,2.9036305,0.6820918,-3.6071398,-2.2024403,0.8123782,5.1369295,-6.511463,3.0347877,0.065768585,-9.405912,11.549455,-3.7233925,3.4956815,1.0180349,-2.3426802,-1.9744825,2.229646,-3.6848662,-1.261272,-0.046718214,-2.4415176,-5.0495462,-4.730691,0.94621116,-0.5118709,8.459961,3.3955731,-3.017241,-12.616425,0.3179384,0.7074957,1.6549107,-3.4741426,2.691148,-1.871936,9.348811,4.1654077,8.886552,2.3545501,-0.9554118,3.8928916,4.321212,-6.0505342,8.93785,1.8468908,-1.516402,3.1025615,-0.47274253,4.7313747,7.4084854,-5.093745,6.1592455,6.47773,-8.376636,-3.8107214,-0.013464637,5.303429,-5.9837894,6.190706,-3.958336,8.79137,5.406277,-3.5738404,1.0392749,2.326408,-10.918977,-4.580768,-0.47415346,7.1592712,-2.8733997,1.0648853,-0.87760484,1.1350874,-8.596392,-4.1072288,2.3505998,-3.0618925,0.027955437,-7.092787,7.5574193,4.37701,-2.747718,-5.625522,-1.0016,9.244395,-11.334096,-2.5847392,1.4772797,-3.8390307,4.4151444,-2.6608038,-5.386751,2.740931,-0.0037761147,4.868038,2.6508138,3.144887,-6.5660815,-3.205442,-5.763449,-0.93093,-0.26447713,-1.6791865,-1.2082664,-2.0470715,6.9227066,-0.66394323,-4.54082,2.1553457,-3.4230206,6.0070596,-4.9645915,-5.5348854,0.35401785,2.6084104,-4.4304175,0.81533194,-1.4481511,3.235069,2.6820154,2.5782607,3.3690689,2.143189,-8.893108,0.19432981,-2.329353,-7.485304,10.152756,6.271067,0.10795404,-1.1350479,2.6095705,-7.0471835,-2.5307453,3.5601523,-8.248048,-1.75302,-5.345989,-4.191746,-2.507681,-0.5853899,4.131461,-2.5079072,7.7496123,-2.6782029,3.9527056,-3.583619,-5.8407784,55.94065,-6.148474,3.738847,4.7876477,-8.667675,2.181066,3.2241232,2.9691567,2.275649,-5.09851,-0.18116918,3.1555603,-2.6136675,2.0297313,-0.7642309,1.9842043,-6.9382057,-6.937609,2.240567,0.31288147,2.8606482,-5.824264,1.0117251,-5.8763604,4.731263,-0.06187761,-7.898099,-6.72777,-2.511685,1.3752425,0.16129827,-1.774242,8.114552,-3.224425,0.15741523,7.901092,3.7273126,-9.665619,3.1743276,5.2135572,9.876526,4.65483,2.3084044,-5.2466207,-4.1419406,-3.0940638,-0.24133512,-6.6223993,4.6217184,2.6960053,-4.9772916,3.0982783,-6.6925173,-1.3266865,2.4399393,-3.5930939,1.1723603,0.27763823,12.690415,-2.465225,-0.17734198,-1.8443685,-0.7288119,-3.6679065,5.0801835,0.52692187,-4.7831464,-10.076675,-2.3482757,-6.414594,5.540465,3.8895404,0.7223458,0.36216784,-5.697589,-5.9355073,-0.6387903,-2.1934257,3.170279,-5.5965257,-2.2543054,1.1914014,-0.56224126,1.3900858,-2.8607705,-2.5169344,2.7706735,1.5911576,-0.930097,0.04961796,-5.2053304,-3.1561284,-10.641598,7.461642,1.1591913,-0.09213962,-7.228736,2.1388206,-1.0357063,2.5642147,1.3402067,2.5776927,-2.0368924,-4.448297,0.5352633,7.4891624,-1.802661,0.6432203,-6.8793845,-1.0856594,-1.6478142,8.370186,-3.5153477,-3.370168,-8.498635,3.6712623,3.038827,-3.6534839,-0.16955109,-0.8868387,-5.036309,2.3636215,-2.0130346,0.89039814,0.8173912,-1.3185009,-2.0495486,6.0693154,2.0240605,-1.5696532,1.9160757,-5.707872,1.5973814,-1.4655577,-0.7007546,3.6219926,-0.53672796,-3.8396602,1.5176151,1.097816,-1.8991122,2.766771,-2.3516176,-3.338078,0.48756987,-3.0049958,3.867477,6.4371166,-2.0541487,-8.040774,-2.988927,9.3291235,0.79685986,-10.228219,-7.467659,-4.830951,-1.120218,-3.7648969,1.1990982,0.95463836,-0.8096525,2.833512,0.015021584,-2.923726,-2.7770119,3.043006,-3.5371625,5.178776,-7.8635387,5.45017,-6.0596156,-4.463431,9.386663,-2.9489803,1.4228824,-2.5973713,-5.6357455,-3.2058828,-0.92697173,-4.5382714,-1.119821,-0.6936172,4.6807566,1.192857,-3.560783,-3.1692615,-4.860274,3.4459198,3.4611464,-0.7551301,-0.092962205,-4.51572,-3.453213,-0.82664955,4.074769,21.447346,2.4191833,1.8604182,-0.45544463,9.676398,-4.629418,4.4260178,3.0592206,3.0598364,-4.6615443,-1.6174563,-5.091739,1.2891055,1.3191651,-1.769935,1.5159409,-2.791485,7.961078,4.5144877,10.503294,-18.897198,0.7384736,-0.4979087,-7.6329594,-2.5767431,1.883778,1.1597745,-1.2614344,24.435215,-0.90399516,2.3565671,-7.1331186,-0.5085722,1.7772104,-0.5052455,-2.6316147,-0.47589296,-2.9342692,0.61998814,3.0450103,-2.666456,2.0486243,-2.073653,-1.3863375,-4.1497073,-0.42586723,-1.578352,-1.2473776,2.032112,-3.7029557,0.9422343,-1.4247805,-1.5294589,-4.849991,3.5782166,-5.115975,4.359457,0.8690984,-1.4991093,-1.1141331,1.5444835,-0.56423503,0.14917271,-7.262921,1.081694,-2.4744925,0.51495206,9.455408,-1.0529099,3.6103761,7.7962546,0.6206331,1.2642853,-6.5966454,-1.4536172,-3.2237582,-0.3092448,3.7220318,-0.25193122,0.25739598,-0.21062538,5.1720433,0.8352169,-0.4080996,-5.2467313,-0.45156798,1.6922617,-7.284242,-9.7760935,-2.9392858,-2.5454118,3.3870006,-2.590882,-1.8693099,1.5068423,-5.2312617,3.5405066,1.1795639,-1.0303226,1.456419,-2.4639843,-1.8160936,5.4789214,-0.48964116,4.3752236,-0.011477609,1.1365242,-1.0095097,-6.0384154,-0.35152325,16.624727,3.4455495,-7.2218394,-4.776506,1.0185933,-0.81482816,-3.2740462,-8.966621,-0.2663392,-5.5467815,0.43941575,1.9101033,-1.252024,0.7630686,-3.9441044,-6.6100645,-5.2127676,1.6662366,2.803403,4.3646965,-3.56656,6.438197,-1.2138554,-4.8268843,-4.4707656,1.3891729,-3.717362,6.193442,-4.7945294,13.105875,0.48535383,2.1746633,-4.311042,7.76047,-2.9512856,-3.52865,-0.45642212,-0.6938648,-5.0832014,-0.6304673,7.18651,-9.388002,1.4773431,3.7634811,-3.4779193,0.703138,-9.238693,0.71515304,1.6856606,2.8153586,-7.260569,-2.7231138,-1.316184,-3.5552015,-0.5240744,5.444407,-0.24850902,-5.0873823,-6.9788613,-4.2293015,-2.662524,1.4756366,-4.7519236,-6.4434423,6.7431383,-3.3391008,-7.692702
embedding_4: -8.168042,2.461804,-5.937485,3.947952,2.4322848,-4.825838,0.40100828,7.602475,4.429246,0.5680123,7.849353,7.724427,3.2959995,2.867146,5.3948255,2.8613403,-10.171519,-2.6664324,0.85764533,-1.1535424,-4.708067,-2.3467593,0.17957357,-4.442977,1.7320772,0.6718723,-1.81621,0.97481954,2.3849938,0.109651215,0.34028548,-2.9297495,6.2595143,-8.305538,10.771384,2.0229726,-6.3102226,-1.8550342,-1.4621952,2.7550175,-0.7882019,-0.5958028,-7.002347,-0.94840896,5.001621,0.8973962,1.4681319,12.847826,-7.7572803,4.6437078,7.7216806,-6.866815,-1.9373409,2.755243,-8.382903,1.2336352,2.9601336,-2.1371214,-4.0564837,0.49982858,3.5802722,-4.859165,4.9660325,-10.143151,10.867034,-1.8122809,4.3298903,1.0118158,-5.0105724,6.389603,3.516541,2.3259044,0.27806476,0.7055982,1.7850432,3.4179645,-0.34712902,-3.3671112,-1.7185316,2.0803645,7.6972113,-7.0382237,-2.2850482,0.8403121,-10.455048,-1.6669241,-4.874231,-7.0871034,-3.6923711,-2.1228,-8.093352,2.5418973,7.4391146,-3.159085,8.763253,0.78662056,-1.3535445,-0.0700084,-4.9202604,3.72432,-3.7643476,-3.7534494,-0.42745727,5.782235,-3.7509217,1.7403008,0.48899946,-2.6533144,2.4045246,-1.2046086,0.08572467,4.2238035,-0.28590575,-6.759831,0.44876152,-0.5410345,-1.8852729,7.994371,5.7467794,1.0826657,-7.5126324,3.6864393,-2.1228836,1.2906749,2.3040304,2.98337,0.628455,-1.6801983,4.575529,7.179504,3.129488,-2.9219313,-5.9530144,2.977552,3.8377419,-8.171831,3.7408192,-3.3977897,-1.5628153,-1.9679322,-3.8042278,4.8187175,5.5570774,4.385208,5.9733343,0.26708618,-4.1521087,-5.352119,0.13640043,7.81068,0.5139455,-5.8330717,-2.4371812,-5.6611,-3.6553574,3.359382,-4.9042974,-4.0776668,2.1517997,0.8731769,-1.7823688,-7.3652964,-9.316509,1.2243438,-5.132951,-4.4104314,2.7165847,-0.18320464,5.9890285,-6.5717206,4.855376,-9.277099,2.0036726,0.39806372,3.1254432,-1.2949455,1.1788015,-17.116867,0.9312476,7.4021444,-2.7926404,5.1245356,-1.7744702,1.2827172,0.30877036,2.067014,-0.69896513,-15.797955,-0.3025552,1.5711436,-2.8588245,-3.6973891,8.6453,-3.0112026,-6.1948266,1.1488272,-2.865378,-5.1690593,2.8579705,1.5486168,2.5657358,-9.251786,3.7055962,2.1447024,-7.329058,0.464738,4.12201,-2.5820575,5.624312,2.8878632,1.6550637,-0.5704652,7.722991,-7.6165967,9.069361,-1.579157,-0.033105303,3.575012,-8.071768,8.309904,-2.1669903,-1.9518899,-2.290961,-4.271519,3.1391118,0.6802514,-0.015027562,4.66454,6.5808315,0.4921143,7.8211265,1.0923185,-1.485362,3.1728225,2.7724411,-4.467132,-10.204194,0.53316593,0.8754038,-1.6555164,2.6991363,3.3020995,-0.7717214,-1.947517,2.2778301,0.18962827,1.8743377,5.2027903,4.195354,-2.3669639,-11.803547,5.2050056,1.2620525,0.1781747,4.168558,7.9709663,-2.24426,1.3412684,0.56867635,-4.921752,-2.2778373,0.2174119,-7.011891,-3.8935835,3.514105,-2.0524106,-3.2687776,-3.1776092,0.5262361,-0.8507319,3.382895,-2.6791444,7.799048,5.0570173,-7.8649764,6.925183,-7.456403,-0.40423977,-0.012780559,6.28943,0.49210742,1.5025939,-2.961826,-0.8192157,-7.2800474,-62.468445,2.3128283,1.7275757,4.915443,2.2769673,-0.87262803,3.3262033,-0.048898205,2.6033053,-2.324736,-7.024727,-1.5481164,1.870852,3.7905505,-1.1235912,0.2615589,-0.06836555,-1.9563282,2.088242,-3.3590553,-5.9710517,-10.036524,10.988379,0.24415915,-0.18173695,-7.966898,-0.58702195,1.0047859,2.15571,5.4615245,-4.686055,-4.1779284,7.3920393,-4.6651144,-1.719599,-0.50730526,11.39495,-1.2439444,-2.8317876,-3.2440715,3.828015,4.9951353,5.9987736,-4.109113,1.9269531,2.0366082,11.279686,-3.5493774,-13.231639,-4.2633,-2.6922576,-4.882474,-3.0141494,4.508079,-1.6842932,-0.47153184,1.7455568,2.1506612,-6.3269773,4.7285085,-0.9881348,-5.565534,-0.7693143,-3.705331,-7.7944613,2.4054933,-4.752979,1.8594476,-1.5466701,2.634316,-4.3162494,-3.9342122,-1.4054075,-0.81234795,-3.1696122,-3.2465694,0.26590142,2.3428924,5.212364,6.486029,-8.62602,-0.13009565,4.1073647,-4.6333594,8.059807,-0.33542374,0.06131836,-2.4442642,-2.043625,-2.0564249,-4.88624,-2.13168,-9.716509,-1.2106733,-5.4771485,-0.62022835,2.8205652,-0.614109,-2.153076,-3.5998824,3.3644598,-3.2178657,-1.6629364,0.18255477,-0.1467065,7.270521,-0.82228595,2.8757217,0.2040687,5.6755185,0.40699863,5.22071,-3.9148452,-3.1887054,-1.3542861,3.309225,1.2533196,3.0002105,2.5611813,-3.9166715,-0.13322727,-9.349299,-3.067082,-0.5589653,-2.4075227,1.7352943,-5.468136,0.9219333,0.7169778,-3.5243084,1.4162952,5.2848415,3.183285,-7.077315,7.6469088,-1.6968632,-3.4242036,1.0926175,2.9949017,0.45204383,-7.5534973,-3.6592348,-1.0462712,5.7226815,6.1872334,0.7342849,6.907588,5.0761495,1.6569622,-1.1109774,-4.8414984,7.3984113,5.8328066,8.163804,8.424742,12.203513,2.035363,-0.002667048,-8.052122,2.2002492,-4.100086,-9.260003,-1.0311642,-5.2995462,1.8583895,3.1265018,-3.215479,1.123733,-3.1716106,2.7674704,7.7574134,6.7545395,-11.61577,-2.2238681,2.8498275,-2.7431571,-3.555352,3.3014917,4.583772,-7.8120327,-8.244739,2.7699718,9.157975,5.188443,2.9404693,-2.1102967,1.1286957,1.2579199,-4.3458867,-6.682879,0.07999925,2.7632267,-1.560221,-5.2742653,5.0230393,5.0684466,-1.1451589,-11.896341,0.88212687,-1.5136696,-0.39544263,-0.087133765,-6.912693,5.3533797,-1.7384876,-5.661503,-4.169448,-3.442272,1.8212157,2.966498,-2.3975177,1.1880587,-2.625925,-2.897952,1.3444021,-30.46621,0.33735925,5.5577135,0.13057081,-6.05053,-1.0726495,-2.1469157,4.7285576,-4.652028,2.871105,-2.997538,-1.2699118,3.321285,-2.0653799,8.880785,-1.4786072,5.7486997,4.1311193,2.4678466,7.1978707,4.5720515,-7.562532,0.3156133,-1.2835764,-8.280197,1.8682821,-3.4368715,-5.662067,0.5158646,3.065528,-7.6935678,10.609923,-2.887123,-1.7792144,4.261411,-7.015826,-8.957126,-4.6242547,1.3008527,3.037926,1.6282117,-0.8337321,4.786086,2.6742792,5.1182203,-0.17859906,-1.182327,-1.4130415,-0.8670764,1.0597378,6.831512,0.78203255,2.8643844,6.0033336,-1.2331709,-0.9647505,5.7078285,2.9810183,-2.8207712,0.35875273,3.0260363,-7.851635,9.352089,-4.233431,2.3228366,-0.88006973,1.6206669,5.4354506,-1.5421287,0.99256605,1.1545179,-1.2237799,-0.28850892,1.7640939,-1.6494703,-3.026357,-0.52168787,-7.4397078,-9.295332,1.9682727,-7.310914,4.5191355,-2.3555782,6.96674,1.7529893,5.2870274,3.6245494,5.2178264,7.2765064,3.9749591,-1.9790056,14.076325,0.6724827,1.5870433,-3.8492482,8.6491585,7.0491233,-0.49409527,2.8536067,0.023102995,5.012458,-3.17851,2.986508,4.4091606,6.9316473,2.673572,-0.8454787,6.890084,2.060656,3.2607415,6.835246,1.257667,1.9649767,1.2630861,6.71039,-2.0250757,-4.678055,0.70369434,9.036247,-4.3661065,3.383556,5.429204,-4.5056777,-6.1187344,8.848846,-1.3689545,-5.8820047,3.904232,-1.4835945,-7.856165,-8.244952,0.7530577,6.09125,-8.570177,2.420184,8.458222,-1.6469489,-0.36749724,5.882757,-6.5511937,-3.0733435,-2.495578,1.5817515,-2.4943006,6.9681034,-0.561964,-8.486868,5.6279125,-3.0305035,0.6966695,0.9615268,-5.9600735,27.715017,-2.150996,0.5530587,-13.742995,0.96271294,0.2581284,5.281827,-0.65939957,9.439286,2.1886487,-2.3490849,5.3759956,2.406418,-2.5604937,1.4161515,-4.9139037,-7.932987,0.54495883,2.3300974,1.4108379,-0.32295933,-4.6473956,3.816936,-8.3204155,7.7349644,0.75360566,-4.675075,-5.689976,-0.9745713,-1.7397947,0.45447174,1.3198943,-0.4263263,0.1560809,-0.14753754,-6.2284513,6.231521,-5.2230873,-3.7031095,-1.4502368,-0.56952196,-1.6534452,-5.8763127,-3.1436024,-2.0847077,-0.7948694,0.9122152,0.082813054,8.801024,3.2350311,-1.2188619,5.9610047,-1.110873,-8.56897,3.421083,2.2899249,-3.4247077,-4.5907383,6.5476155,7.1100564,0.6223389,-0.6342155,12.613961,-4.576652,4.811779,-0.09009014,1.2153807,0.5299213,2.9352934,-8.841563,1.7592179,1.3103011,0.75518864,-1.868216,2.3495653,-0.3909402,-5.126198,-4.87833,-3.1445436,5.5762596,-0.8102971,3.9551225,-4.1630945,-2.7195807,-2.6236863,2.5612895,3.690492,7.655624,4.663566,3.7315767,6.2417173,1.7326413,2.6882732,4.344488,-1.860284,8.24234,-0.16697872,1.7495753,-2.5888305,0.19401395,-1.0585668,-5.836203,-1.0368011,7.423086,3.9812775,5.035899,-0.26814,-5.872141,6.9264703,5.57797,-2.273066,2.2024715,6.699967,0.9370188,-5.0398107,0.40159896,-2.054951,-3.9313834,2.394393,0.5565226,6.0388274,-3.407595,0.35462168,1.5251954,2.9144502,-1.158962,-4.930916,-2.163545,5.370625,-2.268975,5.239881,-2.290114,-1.3000607,-7.175997,2.7298932,-0.109903604,0.30455542,-3.7708144,2.1190648,-1.4754401,-6.3133316,-2.9995663,-0.66664076,5.2035146,-1.675642,-1.9086286,2.5951548,4.111147,-4.8287125,3.077289,-4.120972,4.977326,-3.2941833,0.4204665,-2.4860423,0.40720433,7.933207,3.1005497,-3.5451381,-7.271429,-3.5085576,-0.13661622,-5.115698,9.366169,6.0576673,7.4705515,5.4299226,5.439375,1.981703,7.0863,-7.6325994,-5.422649,4.7173805,4.852578,6.5918665,4.092947,3.7367384,-11.686268,-1.4338993,6.88395,-0.07649991,-3.827449,5.0567904,1.7291439,1.7386978,5.8459353,-0.1065129,5.650435,7.44711,-1.8515933,0.6238676,-1.4163753,0.6392365,1.4177046,0.9534337,-55.633408,8.142024,9.190955,2.4048634,2.0493407,-10.601073,-2.8329928,-2.1731381,2.640745,3.3311448,0.4299979,-1.358134,1.8369626,2.6290557,1.8356174,-1.2819185,-2.803328,2.190091,3.0713112,-1.0217727,2.353507,0.4023173,-5.462685,5.1943407,3.5768423,0.58071285,-4.310517,2.3707888,-30.464064,3.830048,1.2794362,2.4006362,-0.3446772,-3.092302,1.9369107,-3.6349194,-7.4133625,-0.8073947,8.549935,6.4644065,-5.6321797,-4.6668496,-4.0129933,-3.126336,-6.2114024,-1.3239778,4.931947,-0.9109701,9.79388,-3.9614644,-0.06845041,-6.2353106,-1.9596142,-0.12045074,2.2946253,-5.0778036,4.2869377,4.245683,-2.2133243,-9.3739195,-0.68516463,-0.4654323,-1.7077512,-8.144559,7.3309155,2.5042512,4.1088963,3.6462817,2.5790305,-4.692063,-0.49606305,7.0381002,6.832546,-1.9214581,10.812433,1.8546661,3.0741937,10.363875,2.2245789,-1.716257,2.1654773,0.4741053,4.745922,3.5472507,-3.4263542,-3.415564,4.2570157,-2.7726007,4.358486,-2.7509208,-3.5857818,-0.22767505,-5.5876846,-7.355725,1.919379,1.3482752,4.6284227,-1.8640766,0.008465185,3.1191308,-2.595052,-2.762642,-10.090984,7.821411,8.908912,4.1922336,2.9398165,-1.8101643,-3.2063851,-6.373711,7.0991755,3.8532064,-1.8284905,8.177074,5.125562,-3.4593334,1.674189,-1.269256,5.6285315,-8.062445,-2.0090258,3.467448,2.731156,8.992039,-2.649127,5.14079,-4.9649453,2.5841753,-0.6592446,-4.335756,-0.5320326,14.356492,4.453833,-3.4236493,4.285884,-7.3760996,0.05069796,-1.0975261,-5.770555,-0.07075161,-2.7781818,-3.5611696,1.3145907,3.976304,-7.483959,-7.3924055,-6.737153,12.164889,1.9453465,-8.329087,16.612646,-10.9474945,9.365197,-1.6025544,1.5471468,5.176959,-7.028048,1.9018098,0.5045315,0.36563867,-2.3980253,-2.0481186,1.8859069,2.496711,-0.5250671,-2.4864979,-3.3740113,-6.548785,1.9374746,1.379884,-5.172543,-2.2185829,-4.6074815,-0.27902222,0.8385616,-4.204068,-8.650008
embedding_5: -6.3714576,-2.74086,-5.3737383,1.1458914,-0.0299725,3.3346941,5.9334335,5.6323185,5.4609337,-1.4797354,1.138823,3.269159,-0.46046478,-0.16063209,5.117268,4.718269,2.005944,-3.965081,-1.025851,2.36177,-2.8689811,2.4996226,-1.2282641,-0.053246096,-3.5409758,-2.997494,-1.0780389,3.6284754,-1.4750785,-1.036759,-0.82269293,1.1167537,-1.603869,3.5312984,1.5168432,0.46899584,-3.5238166,5.8460956,-3.52405,0.6745612,-2.0571723,-2.4343069,3.449785,2.2874928,-2.574272,0.2912401,-0.4762844,-0.19403799,-1.3757805,6.9370837,1.4430078,-0.5836997,-1.5821106,-1.4821883,-5.2776423,-0.21584594,0.6217594,-1.5998527,1.9641553,-4.000758,-1.7987559,2.8515334,2.5950682,-3.7481732,3.0401118,-1.6529914,2.839611,0.6398075,-3.796458,5.685793,-2.6473565,-7.1386867,-1.4066458,2.7864187,-3.8375354,-2.9671936,5.985381,0.4532727,-2.789224,-2.9739373,-3.2170827,-6.1882586,-1.8805,-0.105202675,-2.9998999,0.20928892,-3.085628,2.2258787,2.7064042,-2.2209125,-4.103788,6.7108746,7.2909307,-0.30853838,-0.5658879,0.003608618,-2.549883,3.4804251,3.8528335,3.6975698,-3.2330108,1.5419712,1.1396143,3.0442512,-3.2566502,2.7294712,-1.5821477,2.124903,5.7823267,1.5569885,1.9174439,-3.164473,3.0295744,8.310258,2.0256758,-2.6395257,-2.4640079,4.374808,0.36611763,-2.0577338,-4.954825,2.4956422,-0.40970364,3.7038884,2.3876243,-2.7259457,2.5367212,-0.10305261,-2.0032556,2.647899,-14.608916,-3.1155133,-5.136173,3.7234113,-0.82378083,-2.6516027,1.0909433,0.11469866,-1.8490392,-5.704653,3.1337316,-4.8939548,3.869801,1.3594561,3.5417016,0.6486125,-0.4568899,-7.3134274,-0.32858315,4.2128587,-1.3214378,-3.892526,-2.5488944,-0.72543395,-1.2585438,1.1158288,-3.140506,1.8037056,-1.1303656,5.6051626,-2.3574333,-1.0946862,1.111852,-1.6491885,3.2558146,-8.007754,5.561423,-1.4737513,-3.5436692,-0.7499118,2.499543,-9.640821,-0.13456558,-0.73318744,1.2772757,0.36282432,-1.0233154,-19.049086,1.5427433,-0.34930503,1.4939584,2.7009575,5.4902687,1.0637629,4.578618,0.41429913,-3.3876767,-19.753834,1.4200785,-0.21191296,-3.6882572,-2.1088517,3.8536315,-0.44876435,2.4804008,0.43793207,1.1426392,-4.028154,0.9781195,3.8381793,0.9656107,-4.860206,-1.974989,6.1116667,-4.104297,-6.742696,1.564066,-1.3033673,-4.3599787,-0.0483924,-7.055407,-1.9013513,3.6719208,-7.5745263,-16.334986,-7.860276,2.4519572,2.4222615,-3.7977648,0.23907706,3.8039231,5.3536997,-3.9986527,-4.0222754,2.4372241,-10.948688,1.125594,3.1744864,0.2369451,5.3370733,2.4403965,1.4106269,-0.44651422,-0.10175038,5.684995,-2.7054803,-8.270109,10.427119,-5.930431,4.302222,-1.78877,3.2253644,-5.866899,2.8455741,2.4590318,-1.250087,-0.052625556,3.0420728,2.139283,4.762499,-3.2778285,0.80266184,-6.3347244,-4.745144,2.3577142,2.5746884,-0.035730638,1.7394831,2.0402699,-7.847549,2.7716146,2.1164794,5.589323,1.5497787,-2.1620162,-6.075719,0.93033427,3.0785592,0.643329,0.26029524,6.4665537,2.106152,1.7083776,-1.1056926,1.6838785,3.9961925,-2.9829714,-3.6264322,-3.080506,-1.7916303,6.9835587,4.7833996,1.0905052,1.303663,-7.8196754,-21.571198,5.2502127,0.733903,1.8133798,-0.102799535,1.2753873,0.2405758,2.2431457,-7.2247734,-6.4334707,-5.9118404,4.875354,3.435726,9.274289,2.7147381,-5.1460266,-4.9284143,-1.182545,3.6254542,-0.71328974,4.866542,-1.8687387,7.0253124,1.2933921,-1.0373225,-3.568161,4.19619,2.760613,1.009102,1.2828664,-1.8873237,-2.069599,-0.42679155,-3.08274,-1.2724615,4.099697,0.00400121,-1.6219571,-5.0361524,-0.21404132,-2.0360422,7.709129,-0.51700634,0.09749935,5.893986,0.3946928,-1.2507186,4.8426886,-1.9260308,-3.0380163,-0.50493306,2.3580966,0.5977928,0.71839595,2.2844353,-2.4189966,2.8917608,-4.587475,0.7366056,-6.4711657,-0.9580864,0.69313866,3.9079661,1.0104617,4.154469,-1.7104361,2.8963413,-0.79481137,0.74940485,-2.8104782,-4.2410536,3.0949423,-1.4517133,-2.7433193,0.9457135,-3.9349442,-2.3354313,5.1042433,0.60339093,5.882078,-2.681138,1.5424464,2.3268785,2.362889,1.8463657,2.7431016,0.5748253,0.58032566,-0.047428183,0.100357234,-2.1527047,-6.43083,-4.856747,-7.288131,-1.3312457,3.6374784,-2.1291633,1.9839078,2.9050407,-6.098129,3.8941505,-2.587444,-2.7547772,0.47993675,2.290844,1.0904565,1.147981,-2.3474455,3.7807257,1.4545283,-5.317418,2.684558,-5.140716,-1.0985847,-0.80038375,-1.2274832,0.7870146,1.088136,9.017514,1.5087059,-2.4951367,4.637285,0.38185662,2.4378307,-0.121378794,1.6949557,0.1945733,4.2438946,1.2402399,-6.8242655,4.5929914,0.4100995,-2.3315496,-3.7159967,-1.7836232,-1.8101798,-0.9966503,0.7427277,1.988592,-0.86920655,-0.9596081,-0.5288442,3.2040186,1.4709431,-2.525991,-4.117047,1.1506392,-4.0514183,2.2590616,-2.9354577,1.4580547,0.59734106,8.376986,2.4011495,3.0128047,1.3228534,-5.0395722,-7.2643604,-3.8445756,0.5661142,0.76460963,6.2032385,1.7141683,-2.1287906,-2.4922416,-2.4201798,-3.5280526,5.586853,1.621453,-6.2934365,0.72305536,-1.6906443,-16.047506,-8.308318,-2.8106527,1.4138685,-1.8724099,2.6274445,0.99171114,-6.172902,-3.7745612,5.5978136,-0.75525904,-2.8301175,-7.409576,-3.7333393,3.623764,5.873315,3.3040366,-0.78013766,-1.9254879,3.1081226,0.58982843,-8.293594,-0.48295707,3.3684947,4.395216,-2.5907872,4.17328,-1.8267224,0.68055505,8.642872,-3.878098,-2.2341964,1.4885194,-0.9946993,-1.6483917,-1.159612,-2.110082,4.806294,7.9241223,4.769333,-0.7293029,-2.330746,-0.52440166,-4.3708563,2.7954428,1.7162926,1.7139462,0.13985486,4.6712885,-2.2586179,3.9418225,2.5732896,6.6834464,-0.65808916,1.1607448,-1.0558281,-3.1126726,5.754442,-1.4674047,0.77313614,0.79458773,-0.27764022,0.009414074,4.0208216,-2.2577467,3.0290773,2.843644,-0.66718805,-4.4515643,-1.5461813,-0.9867169,0.20423612,1.4154106,0.45081863,1.5625299,-2.274062,0.85033953,3.6766698,0.32912707,-2.5788965,2.249578,2.689827,5.0567384,0.9762922,1.861251,2.423399,2.2673545,7.6199775,2.8025882,-4.491004,5.2199407,-0.31071916,1.7155305,3.5075753,2.4917042,1.0545905,5.5026264,-1.3230599,5.2062883,6.3152766,-4.9253135,-1.4309236,-0.3161853,3.1755862,-7.043708,-0.7750931,-7.731837,3.3077934,-0.32960254,-2.7340627,0.8218674,6.6502447,-5.188581,-3.008821,2.9482498,8.499605,0.65848076,0.96802807,-4.1065407,0.74659634,-17.45863,-2.5417807,-1.5291473,-6.1269927,4.899403,-2.9992096,3.072092,-0.15529251,1.6522808,-0.6127257,-4.621995,8.889326,-6.9708004,2.0271957,4.8744845,-4.882196,2.6477492,0.12715043,-4.9664226,1.0047812,-1.8658105,3.0560193,-2.0463212,0.29526094,-1.758635,-2.4000535,-0.54254484,1.075664,-0.6459202,-0.21875502,0.32132062,-0.018378435,4.8232694,-2.6889846,-4.3808155,3.5454283,-0.19318429,3.4666293,-3.8583715,-4.857782,-0.7135623,0.38904014,-1.6312528,8.698467,2.3058555,2.8579454,1.2473112,6.9553466,4.0069795,-1.6479918,-3.8910694,0.22797514,-1.1035476,-6.3380666,6.844835,4.0438128,2.5651953,0.38986638,0.6882849,0.3213991,-5.4417725,7.087857,-8.210897,0.06591128,-1.853496,-4.9587154,2.0038517,-2.4980245,3.6473167,1.4888687,9.604417,2.1054125,2.3411949,-1.8575951,-2.0169625,82.37127,-2.951132,2.5741127,-2.0427399,-7.0166945,-5.915723,8.598005,4.258107,4.712937,-3.6253636,-2.0107584,2.74212,-0.67681706,-0.031705186,0.6116774,0.4794036,-7.576125,-2.2907066,-3.6095679,-0.5597872,0.64673513,-4.2878885,3.72795,-2.8337255,1.3412389,4.696916,-6.8254137,-6.573346,1.1430341,1.2001423,-3.1837623,1.9941177,5.6082344,-0.47122383,1.5335712,4.418184,1.2295758,-4.4294,-3.5760524,5.0922003,6.5853696,6.20801,-1.0192866,-2.9406435,-4.8967853,-5.184883,-1.0968053,-8.8839,4.283634,-0.86777693,-0.17762476,-1.306543,-1.9981314,-4.842176,5.9113345,-2.557706,-3.941365,0.05899983,7.3330727,1.9251996,-2.3090975,-1.643925,0.35046503,-3.2921689,2.319064,2.9355114,-0.1634534,-4.379642,-1.7173471,-2.987318,8.82096,6.138927,-3.5127463,-0.42239374,-3.5230947,-2.7688937,-0.36753595,-2.1357443,4.583207,-1.6478081,-5.748332,1.9668194,1.4487314,2.6614563,4.1089563,-3.9375737,7.6701627,4.329195,3.463541,2.9022493,-1.4509965,-0.124987,0.52184135,0.014380734,0.7761392,-0.1318342,-5.004783,0.15166152,0.5457545,2.926336,2.3842185,5.868408,0.079574205,3.8232887,-0.047303397,3.424062,-2.1866858,-0.92481655,-0.49220264,-1.740709,-5.2488503,5.745374,-3.2467027,-0.88261896,-4.817354,2.512744,1.8996644,-1.081609,2.2799969,0.5483402,-7.9230843,4.3559675,-5.4773817,1.3840469,1.0059814,2.0585701,-1.9830563,2.901776,1.4996856,-1.743399,0.5095713,-1.5774223,0.028533202,-2.89339,-1.55824,1.1091475,3.4076838,-3.334706,4.3154263,0.6005873,-5.841863,0.7741521,-3.182029,4.50862,3.1373253,-2.0849843,6.2389,6.049174,-0.86293113,-3.5247421,-1.5818819,1.8662941,1.5612466,-0.2413913,-4.137617,-1.8236938,-2.8008933,2.015619,0.15398943,0.25003648,-0.8127223,5.13027,-4.5768037,0.60743886,-0.7264066,4.3252816,3.7931464,4.8963556,-3.7479293,3.1407084,-3.5254085,-2.3774457,8.961694,-0.9449881,-2.2738066,-2.5049067,-2.7160583,-4.9802995,0.4135275,-1.5967946,0.36632892,4.733895,1.8792727,-0.124176316,-3.6421263,2.4064758,-2.1012282,5.1497197,3.3941598,2.5005176,1.032007,-5.1657615,1.7927638,0.6118887,1.8746367,33.739025,3.9176166,3.1095855,0.6946373,4.267227,-0.5438718,-1.4399507,2.2402372,1.5974926,-2.7094884,-3.060787,-1.7940909,-0.873177,1.2960589,-1.3844795,-1.5475862,-2.4844158,6.3100514,0.6352765,6.105891,-11.425164,-1.8462871,-0.17147344,-1.0975322,-2.4269688,2.4135594,-2.4409368,-3.01734,25.860207,-0.9550432,6.4911675,-0.06361017,-0.6465606,5.0945,-2.0366707,-4.1820316,0.011639488,0.14740688,6.888112,-1.7944667,-5.069166,1.9666433,-5.1163545,-0.04471974,-0.38192233,0.5783343,0.52556044,-4.4774837,4.9294715,-4.715947,0.30986747,-2.3810675,-0.3832593,-1.5524547,1.5053389,-3.0957544,2.716814,1.7651428,3.7501595,-3.50926,1.4022754,-0.59782594,0.7375116,-11.120248,0.52381885,-4.4147882,4.0507994,5.773939,2.2874668,-1.3721412,0.35760424,4.9851193,2.4537601,0.4337382,-2.70448,-0.21143295,1.6128569,4.709931,0.087579854,-2.7330139,-2.9602518,1.3568925,3.0337434,-1.7655234,-6.518405,-0.7154585,1.6090447,-4.705583,-5.018208,-1.7215911,-5.9072866,2.8860095,-3.1871054,-1.1545733,-1.3805685,-6.270366,-1.1166931,2.754817,-1.2193787,4.5153227,-3.770511,-1.273424,4.938769,3.5279737,-0.71349365,1.5965333,-2.9186609,2.9315124,-5.830241,0.48500773,18.908129,-1.2792397,-6.7344866,-0.6327847,0.2420788,-3.494935,-6.883742,-9.881396,-0.62737006,-3.445225,-0.5873461,-0.017679939,-2.425316,3.0800917,-6.2764025,-3.6071732,-5.139395,-0.88124573,1.1676757,0.8187645,-1.2963381,7.945316,1.7345543,-1.7824926,-3.9675248,4.1017833,-2.8864856,-1.8876832,-3.3504138,8.942926,-0.92799646,-2.092394,-2.4729457,7.9344273,0.30567014,-5.37308,-1.2237207,-0.53495073,-2.3051243,0.06312007,15.081289,-3.811712,4.3163886,-0.06387113,-2.957772,-3.3636749,-10.510028,1.5847151,-1.6474131,2.3605428,-4.6051774,-5.1911325,-0.28676903,1.2748026,-3.348737,6.041346,-1.4041208,-1.623055,-5.9943976,-3.1477551,-1.7299597,2.475541,-7.4851604,-1.482502,4.4436564,-1.7577709,-4.8856854
embedding_6: -3.3512435,-2.0446887,-9.416136,-1.841714,-1.6118056,1.2557172,0.6409919,2.73794,2.6258152,1.572558,-3.6351707,7.5759377,-6.2241797,1.1597848,9.5080805,7.580183,-2.1818767,-3.2607942,-2.339811,-0.9115608,-6.894782,5.168878,0.7254624,1.9262291,-9.753963,-2.6196532,1.865816,2.6749892,1.4928927,2.8867648,-0.2819518,3.7138069,4.0510535,3.0461943,1.5583916,-0.4975749,0.54905474,2.5814095,-5.952759,0.9707833,-1.5342238,4.0897975,3.2781703,8.267448,1.2772825,4.1693163,3.5285735,-6.0575333,-0.94525,5.508417,-3.610428,5.5856566,0.037849683,-1.6587571,-6.9559107,1.2887685,1.4332461,-2.1709883,0.8124372,1.7086323,-6.736585,4.7977295,4.159156,0.49602136,15.812152,1.1585699,-0.19328524,3.4737954,-6.417479,0.62368983,-8.170264,-11.2199335,0.25805065,2.4575899,-3.8353765,-2.5747297,4.3480926,0.56957006,1.2259027,-0.7376829,1.6045734,1.9896765,0.91118926,-3.1096833,-2.269804,1.9945891,-7.064019,2.0486853,-3.6156507,-1.2809727,-0.40765053,6.5813584,4.851606,1.8532346,6.5878043,-0.0662026,3.10244,0.5987698,3.3094585,4.4215136,1.6157511,-0.18979017,0.050075583,5.876209,-0.62574565,2.8410807,-0.34480467,2.05011,5.2369375,5.128386,2.9737961,-4.4702935,4.9964232,5.9425836,4.169076,1.5173436,-1.7585306,5.0979915,1.9175922,-3.7185237,-3.2965846,-1.1572379,-4.212901,2.2205625,2.6967936,-3.5511162,0.37356928,-0.7633393,0.21041043,3.1927679,-17.77463,-1.7883534,-3.1394298,0.6823912,1.5482246,-3.3810542,-2.8687806,0.091092154,2.6543553,-5.1720386,10.051028,-3.5476441,1.7117468,3.0826766,3.3807576,1.3400003,2.7848732,-9.281885,1.965063,1.9529341,-2.11089,-1.7090731,-4.973088,0.25251928,5.872323,-1.9991713,-0.8770614,5.6822968,-8.434365,8.704436,3.9549384,-4.5746255,3.605463,-0.91923106,3.2149673,-5.5120077,5.283742,-3.3520973,-0.21944587,0.89519924,1.35566,-5.002542,4.9339657,-3.0054255,-2.6641395,-2.1119206,-1.1711395,-9.883947,1.0383884,-2.2447615,-0.24097805,3.2068486,3.5261488,0.7572042,4.2975464,1.5389049,-5.249339,-27.963465,-4.711357,-0.767849,-0.969578,-7.2872543,0.40549517,2.8109555,6.2728486,0.8087571,0.3461621,-5.8061495,-2.516069,-1.4645635,-0.6714001,-2.2300978,2.6528003,-0.35109386,-6.475573,-4.2824883,1.0511228,2.4476705,-3.5415113,2.543778,-3.9354055,-0.8176932,-0.4842655,-7.3699064,-18.274977,-9.987699,5.060472,-3.2457156,0.6610452,3.4067454,4.565991,5.091284,-0.00035662667,-3.6145396,0.45502394,-12.189717,-1.4131438,3.3038652,3.9205742,3.0577166,9.876506,0.024050878,4.38779,-1.3688669,5.7518835,-0.9485739,-5.209664,0.69501126,-4.805258,4.041279,-0.3207739,1.8480978,-10.091494,1.302915,-0.40398455,-0.32799727,3.3157978,1.6372772,2.8137288,0.9995681,-4.34006,-8.517766,-4.338858,-0.70026654,3.5433526,4.7251854,0.17963144,4.8067,-4.5559297,-3.5692737,6.5055537,2.73322,5.861831,8.9102545,-7.4881454,-5.5794873,6.942154,3.452241,0.4712693,3.4810314,-1.9608874,-0.06813858,4.0344687,-3.667461,5.1149426,2.7801094,-2.2609406,-2.041912,-4.5490603,-7.498427,3.5324469,3.0149312,1.9673777,1.8128929,-10.001066,-18.629189,6.575536,-2.2764452,2.5374322,0.6587808,4.294526,0.5972016,1.2265307,-4.2929635,-5.0937066,-0.37665096,4.981989,5.936555,4.1649094,3.5043845,-5.4779887,0.9615496,-5.001393,1.1934315,-2.3396804,5.4803934,-4.517149,6.2410502,1.7980355,-0.3535278,-0.9624433,-0.071364194,-5.1944356,0.17386465,-1.041081,1.5362055,-2.8962505,0.82069397,-10.182387,-2.914896,2.9922626,-3.1772902,2.2894654,-0.9396078,-1.7792581,-6.5849667,4.686599,-1.1242698,-4.2342052,1.3072627,-3.782612,2.752507,1.0365666,-2.021,-6.2417235,0.0102706915,5.4616284,-1.25292,-4.7001376,-2.808088,2.0250087,4.097197,0.52780807,-2.3858218,-7.9449005,-1.4650975,5.9723315,3.3811042,-0.19069755,6.7304664,-1.4487921,1.9758794,3.344112,3.3867629,2.1705909,-3.9928076,4.5464396,-5.2796626,-3.8598359,3.0659764,-6.5374403,3.4428976,0.78356135,0.930493,5.716468,-3.081549,2.0136504,2.258867,-0.6609818,3.582919,5.197976,3.3468401,-2.8753989,0.83123815,5.160761,-5.9068007,-4.155388,-0.3857446,-4.8942146,1.432673,4.628093,-2.4875736,0.2960151,3.9893029,-6.319062,0.27781913,-0.91861683,1.6034657,-1.0021645,1.7494346,-0.6718886,6.9939446,-3.9086225,3.9969704,2.209725,-4.697192,7.555783,-4.6679435,-0.8410908,1.9028476,-5.6106095,0.84273255,-0.7590836,7.6031613,-0.53914595,-3.6005986,2.6819046,1.1374711,8.922346,6.39548,-1.9911745,1.6917213,2.3036098,0.8342179,-6.0135813,2.6620135,-4.4104977,-4.921565,-4.094646,-3.2433102,3.4543464,-0.0004947691,5.2096562,3.0880673,0.3818095,2.8594968,-1.9880723,5.6473603,-0.50196266,-1.1589066,-2.4857683,1.2651907,-3.2008915,-1.22314,-0.85153264,2.1206067,-0.035899237,12.725781,-0.16557008,5.8403454,0.033630367,-2.778619,-5.5617056,-4.9955516,0.93860567,2.7909672,5.976626,3.0885289,-1.182194,-2.7630262,-3.0532112,-0.6074356,3.5400114,-5.046132,-8.781647,6.6909933,-5.805043,-14.016927,-4.28374,1.6916469,2.4187026,1.4965588,0.09049385,2.9051588,-2.3490102,-4.37366,1.7630223,-5.3355865,-1.3450774,-6.82374,-3.0552218,5.303126,4.1028657,10.99826,-1.8385429,0.8964599,-0.20889433,1.9848976,-1.3171241,-3.7587519,3.5140643,8.120204,1.4924563,4.1177382,-3.3178053,3.5964043,6.763956,-4.176028,-1.1979294,2.7272525,1.6547178,-3.1140063,-3.5087252,-0.5918485,1.7406416,13.222029,3.6723728,-4.1190104,0.111503094,-0.9175066,1.6603837,10.055778,-0.15499994,-1.1258852,2.1213908,2.9479823,-3.5733044,-2.9590015,-0.03811231,7.0739636,-3.990491,2.6977024,0.075504445,-10.790824,7.40488,-0.9513921,-0.07476415,5.75721,-4.5699725,-5.9069185,5.009403,-0.50301594,-0.7939845,1.018276,-3.7045689,-2.609873,-2.7899964,0.5105391,-2.5400894,2.4250293,6.1353087,0.5417147,-7.856786,1.9844007,-2.2447972,2.6475298,-2.1467273,6.142001,-1.0319946,6.390915,3.1252036,4.2581944,4.1226435,1.9367169,4.6806564,-0.68182766,-1.5946101,3.1521494,-0.39809653,3.0498474,3.371312,-0.74854773,4.6456537,1.9931809,-3.3841984,2.8419814,10.972205,-8.285071,-0.8316677,-2.0875049,5.228881,-7.352197,1.8078593,-1.9929377,5.3270073,2.1666257,-0.83576787,2.9582016,4.569259,-8.543379,-8.490608,1.9353228,6.3376045,2.4886358,1.764531,-4.7516985,1.0288503,-8.1776085,-2.8370366,1.9988438,-3.0468032,-2.1956222,-5.9799037,2.5736618,2.4762027,-0.8695536,-3.4798455,-2.6722646,10.843277,-11.645891,1.020215,2.3087134,-3.401361,5.598386,-2.2929597,-6.002414,5.0564575,-1.9538308,4.315874,0.44879025,0.8921964,-6.2636557,-1.8133769,-4.178914,-2.0402997,-2.6325812,-1.6320083,-0.47730327,-4.513277,1.8742067,2.1705177,-1.2475802,1.6353421,0.059846703,3.80025,-3.0003831,-7.4044476,5.8090367,3.1848466,1.4504021,3.644522,-3.0181382,2.40955,3.1768563,3.183428,3.872004,-2.2212644,-8.379506,-0.7145918,-0.7407654,-3.0606642,9.660783,3.8026593,3.943782,1.6766533,3.1871927,-5.4561815,-1.200331,7.993616,-5.5363774,-2.8480024,-7.9179807,-4.463872,0.3195008,-1.2052946,2.6216507,-4.191718,8.188732,-2.92647,4.2433023,0.023204423,-2.2502215,66.1351,-4.771022,1.487845,4.3112173,-4.129816,1.3760662,5.795766,0.7608233,2.12382,-7.172741,0.5683588,3.1555095,-6.2051597,0.47642037,-4.316522,0.83512115,-9.317879,-6.4289145,0.56456226,2.3173413,1.211206,-5.35079,0.20160654,-4.34945,1.0728961,1.5447371,-6.144944,-2.6215937,-3.9831645,0.5615529,-0.5103829,-0.03240163,5.927033,-3.3250782,3.2473476,7.8356094,3.8365083,-6.8278418,1.1115551,6.165119,6.4642906,5.373846,-2.5376549,-5.759242,-3.4743266,-3.123214,-0.8745713,-11.899437,3.8841207,1.0937581,-0.79831547,2.1795518,-7.3800817,-0.701203,2.9174063,-3.070719,0.88410145,4.557058,12.121492,1.3174467,3.4036672,-3.61451,0.274128,-7.9167004,0.8256332,-3.2723615,-2.9432123,-2.511087,0.30689678,-6.9344645,5.123903,3.542075,-2.0245752,-1.1498795,-3.7250276,-5.508733,0.9144444,-2.8969667,0.7005725,-4.6304607,-5.658628,2.483571,1.2943503,-3.0392618,-0.40655842,-2.6431336,4.4844866,-1.870805,-0.9687651,-3.4119804,-0.5194654,-0.92696023,-3.7524703,3.2824953,-0.19575515,-3.9005756,-3.5681477,2.6704428,0.037928823,0.91206664,-2.2560356,-0.27833247,-4.3349767,-0.6522733,-1.3000273,7.590027,0.16772415,-4.1281,-8.292209,-5.5029216,-7.58118,5.2627416,0.055133875,-1.3200805,-6.504923,2.8004088,-0.19708307,-2.8136363,1.265364,-3.4024205,-6.8246484,-0.6223301,-5.350545,3.967663,3.2516918,0.9947371,-2.0169902,9.625558,1.4086819,-2.5492566,-0.08436702,-4.5381403,1.6336229,1.8420947,1.758929,3.2948391,-1.6931167,-3.9375193,-2.0205135,2.3585858,-6.932261,-0.56092614,-1.0874071,-2.9421518,0.78585535,-3.709349,5.5550585,3.2253263,0.2364237,-9.318022,0.16073932,4.6290216,3.2811377,-6.8727245,-5.4288025,-4.5468926,-3.2102027,-2.7011912,-1.0151827,-5.992048,-0.21240246,0.03741634,-3.1594162,1.6588167,-4.0923133,3.811861,2.8688526,2.4606187,-5.3214207,5.30353,-3.2084477,-1.419177,10.903872,-7.4970555,7.3373938,-0.67278844,1.6413236,-6.5259075,4.090362,-4.852554,-0.9123849,0.8412152,1.0357497,0.74114245,-4.634373,-0.6103213,-2.416386,4.071574,3.152996,-2.6419322,3.3953507,-5.604636,-1.8019605,2.5167015,3.0569458,24.21457,2.0747101,0.55331683,0.5508529,3.9316127,-4.8184495,2.61433,1.4779087,1.3560877,-1.6047937,-4.667056,-4.626699,-1.8498087,-0.023717286,2.5953674,2.165472,-3.4647675,7.992585,2.9758606,8.209436,-15.147202,0.20954353,-0.44198483,-5.850582,1.0583892,2.3700645,0.5420872,-2.9049323,29.380268,-0.04263328,0.027521238,-2.8255477,-0.56717646,3.7136536,1.2425262,-3.7802622,-0.21792756,-3.4369924,0.16951364,2.689413,-3.5164309,1.9021282,-2.3664646,-4.2440886,-5.1787796,1.7213188,1.9697485,0.7888417,4.504491,0.06768152,1.6981583,-2.7648137,-1.2690412,-2.7767797,2.4894338,-4.5296087,4.3446884,-1.3944026,-0.26530492,-2.8112721,4.4083652,4.1432643,-1.4580605,-7.294207,-0.6892479,-4.984916,0.15437168,4.5807667,1.1665101,1.3083496,2.7340362,0.4464356,0.626835,0.31605488,-1.6887995,-2.1328235,-1.057548,7.086389,-2.0322614,0.5226006,-3.2709687,4.5290294,0.46411055,2.9303854,-0.8179647,1.1936163,1.1923344,-7.484713,-10.278313,-1.8490454,-5.394224,2.502186,0.24828097,-2.082229,0.21706377,-5.5223227,1.2840619,2.362441,-1.1915247,-2.765736,-0.8292239,-3.259242,6.053343,0.32105446,0.7950933,0.22114596,-2.2669346,0.6730437,-7.5074663,0.6759544,18.127851,-0.5743607,-8.164719,-2.4868796,2.5035038,3.9462388,1.6916114,-7.625367,-2.8508952,-3.9087524,-0.9874861,0.7232873,-2.3680778,3.16747,-6.200346,-2.950418,-6.3371506,-2.7646735,0.052000634,4.8156123,-0.90868,8.886491,-0.27596408,-4.8406243,-6.256122,2.527781,-4.127678,1.7343485,-1.3146839,7.5397944,-3.2815938,2.066586,-0.71653956,8.58147,-0.5461336,-1.0903547,-1.0161924,-1.1122302,-1.7833728,-2.0687704,12.315884,-10.559457,-0.27663943,0.30744478,0.38628167,3.0117903,-8.612652,5.7574797,-0.50896543,1.4746019,-10.599525,-1.9322027,-2.9024682,0.3736141,-3.4810538,3.0484476,2.004217,-1.2163591,-4.7866726,-1.2940682,-0.8837988,2.9950366,-3.7138927,-5.908147,6.9391065,-2.6593258,-8.833745
embedding_7: -6.5752163,-2.964134,-7.0186076,3.5381265,0.14392371,4.8777933,0.2770236,-2.9231946,6.350519,3.2866302,-0.47616863,8.322298,-6.518968,5.6548715,8.868991,3.0631373,-2.1676056,-1.1981668,-3.04872,-1.5587453,-0.15877561,6.581901,-1.7175972,-0.8451653,-5.5307717,-10.846445,-2.6469688,6.9318533,-0.22761734,3.0766034,4.4738803,7.7367306,3.1624544,5.192574,-2.5320554,0.4113243,1.875233,0.532963,-3.3263085,0.40272757,-6.2444897,2.4813766,0.37426302,4.617007,0.5180593,3.2715342,0.31179997,2.4040854,-4.5753093,2.147214,0.22449048,-2.9138951,0.44974828,-1.4448388,-5.290773,-2.5247009,-1.376178,-5.922498,0.59691274,-3.6204646,-1.019733,1.0796486,10.538881,-1.5639392,15.527866,3.6567688,-0.80513865,0.39854622,0.93090934,0.13939252,-2.2341583,-0.024147108,-2.1823123,-0.82896656,-3.4211125,-4.105786,8.026852,0.10772512,2.5289347,-8.635587,0.04787586,-1.6964587,0.53735006,0.47675183,-4.9539337,4.0777297,-2.1132486,-0.46430677,3.068563,-1.2129272,-3.5009108,-0.6687137,3.4148335,2.979035,-0.8545013,5.4038997,1.6526212,-2.446861,4.0729136,0.077829376,-2.8992064,-1.4644102,-1.0173206,3.8019016,0.059280302,-1.5412091,-2.46038,-4.3148828,1.035867,0.4690681,1.83342,2.0564775,2.978078,9.050555,-0.7556062,-3.0198715,-0.5307913,5.624877,5.500404,-4.7762938,-0.20621264,-2.172922,-2.1749387,2.783734,6.475495,-2.3769863,4.71858,-5.1541047,-4.8631516,0.34170365,-29.763113,0.8030726,0.094966635,-4.514928,-3.9654493,-10.737072,-4.8816686,0.09617866,0.41062808,-1.455199,10.143981,-3.9642603,-1.9747337,2.086674,-4.0629835,1.7391785,6.999799,-1.4484671,7.823533,0.7344617,2.9466877,-7.252286,-6.306832,7.6185255,3.2418644,1.2716997,-0.77671623,3.867872,-2.012591,7.3402424,2.8044946,2.1630664,7.444419,0.9502611,1.3053931,-7.6777353,7.0099397,0.99990934,-5.32925,2.647609,3.9035785,-8.90573,0.040860392,-2.081096,-4.9780726,-4.4027534,-0.82916164,-16.847988,1.8351619,2.425499,3.2237394,4.199644,-0.60119146,-0.897023,1.1003222,3.2318542,-4.174478,-11.809756,-3.5671344,4.656334,-1.2656003,-7.5101714,3.5735538,3.3221853,5.0165563,2.932004,2.9070528,-3.6937602,1.5956264,1.1629393,-1.5840915,0.68573064,-3.3533201,5.050426,-7.34601,-0.163515,-5.2388735,9.112332,-6.3842754,1.0586017,-7.4120393,0.7795053,5.4410386,-8.190674,-12.406765,-6.7823944,0.3825718,3.3314366,-1.2042084,4.9822483,6.700234,2.9439335,-0.104753196,-7.570449,3.3909092,-17.122732,0.22904746,0.94840616,3.2517178,1.5066447,4.8744354,0.7272635,4.2839117,-4.1342406,2.7431176,-6.1560698,-11.69075,-0.057204545,1.5456774,2.0085106,-6.301733,0.43407017,-4.494764,2.8450582,6.50433,4.082698,5.854939,4.957734,2.3869474,2.2227786,0.08977168,-6.1050386,-1.5236348,-2.4248688,2.574571,2.656606,-0.9967159,3.0076149,-2.2267787,1.844242,-0.8393341,4.4944572,4.953993,5.536293,-6.064569,0.18978848,1.0410361,6.1740184,-0.5619008,5.2622976,5.039702,-2.4818773,-7.877261,-0.069732614,8.676631,-0.10497773,0.6566148,-0.24293989,0.3127308,-2.478723,8.511654,-2.0056758,6.9787564,6.6850657,-8.849691,-19.669699,6.089217,-0.5535144,0.40386876,-3.3830385,-3.434137,1.4158576,-0.3178481,0.044301927,-3.6468534,-3.9803143,2.0243607,9.160635,4.9596434,-1.9102392,-8.348498,0.53220546,0.8896127,3.7354982,-3.468832,3.9488873,-4.7832284,4.668977,0.8383406,2.8479686,0.6064663,-3.4711087,-1.8036484,2.11725,-3.6051173,3.1179605,0.249125,-0.44517735,-5.681832,-3.3245287,-1.3218839,3.8002517,-2.8818612,-2.183274,0.877379,1.7089885,3.7315795,-3.8367867,-1.8407043,3.4906783,-6.669951,-1.0725535,-0.43683788,-2.4990985,-7.057708,-6.3730817,7.1817126,3.3337388,-4.6678004,0.21333553,1.8923947,1.2436004,-6.7942023,4.3749084,-8.3664665,4.827358,4.385241,1.667518,-0.66663563,4.59404,-5.967149,-0.5324638,-1.373339,3.2534618,-1.4295301,-7.597515,0.5208441,-6.6188583,1.5011747,2.0405002,-6.4065485,0.26345524,2.7474616,-0.5511809,8.707632,-1.6634738,8.052061,0.56142056,-1.6812261,2.9877915,2.8279543,-6.6153264,-2.5702815,1.2511014,-1.3913671,1.1074349,-6.4831276,4.704763,-5.1339126,-2.2726984,3.3998022,-7.1334944,-0.57849324,4.535366,-8.084284,5.983244,1.7715191,2.928751,-0.69229203,-1.2684808,-4.334284,7.6037307,0.33967245,8.592247,2.201061,-9.902695,2.5722237,-1.4558972,7.822939,4.5408072,-2.1026924,4.5573516,-3.7348819,5.299737,3.4645064,-3.4615645,10.971412,1.5163634,3.6695626,2.1219058,5.8585253,-2.5861084,5.5203867,-0.42251608,-5.0791864,3.1230783,-0.16845447,-4.193557,-1.5226729,-0.23820736,6.2407312,-1.6957804,5.198124,0.7335834,-3.7322168,-2.2493055,-0.8092626,4.652389,4.424226,-3.228099,-2.7467752,-3.1821506,-5.963366,2.504314,3.4883666,4.688671,-1.9184858,6.615799,-1.270507,0.32988766,4.795422,1.3690422,-2.185538,1.4141835,1.6202606,1.8411906,6.9710183,-0.87692964,-7.8306656,-3.32435,-5.400417,0.6528785,2.3128886,-8.068173,-6.134899,-0.63834465,-5.6024065,-19.175598,0.43532524,-3.0834405,1.5658306,0.70891374,-0.17994648,4.0953283,-3.5592463,-2.3780959,-7.460553,-6.1772633,-0.30693948,-2.066815,-0.16399917,-0.4817557,-0.8797658,-0.005768282,0.5991047,2.0084534,5.8709526,1.7604668,2.927146,-2.3699095,2.1161351,7.4483137,0.77775633,-0.29863,-1.8555105,0.6265262,7.7433453,-7.9341836,-4.415753,0.8405111,2.0614629,2.1263857,1.3202082,5.182774,0.8860623,11.67174,3.2753265,-8.446385,7.2791305,-4.779888,6.311244,0.24110419,-3.5954409,1.077693,1.0978576,3.0015843,-0.4976319,-3.297418,6.818393,7.730155,-1.6206208,4.871981,0.14617059,-4.876044,4.825313,3.0544815,-2.0863745,4.909692,-4.79777,1.6477826,7.325369,1.2576965,-2.1453714,0.49159122,-2.267704,-1.0042484,0.8992244,-6.8920665,1.9947505,5.716751,0.088782355,2.6093936,-7.2779,-0.86843383,-4.9151196,2.7046828,-3.2043674,7.077822,-2.7702827,5.702745,-2.1474824,1.384371,0.5622475,2.641654,5.800348,2.6864026,-5.7085743,0.6980668,-4.0584354,10.671063,-1.9551717,-0.6144431,3.9445543,-3.030277,-3.8088276,1.6711987,8.619368,-4.865668,-2.1000326,0.088960126,3.8243592,-5.1087523,4.8308907,-3.4442525,5.470073,2.7970195,-3.6985784,-3.7145433,2.7810798,-7.11259,-8.464115,-2.5847626,9.306755,-1.8483366,0.88369304,-3.8572738,-1.2738125,-15.672293,-8.467737,1.6181375,1.5078349,-0.60192126,-5.4769087,-2.9898124,0.76622957,-2.7030063,-2.415481,-0.3095625,8.064315,-4.365707,1.6466068,-1.2956355,-4.736436,4.3805394,1.7214601,-0.7970577,6.1343484,-3.5337884,0.42018327,0.54748386,-5.797631,-5.9507155,-1.555624,0.053975154,-1.4896705,-1.2031931,-6.452487,0.29587162,1.8328109,-0.79377013,4.211214,-0.97389954,-0.5350766,6.012136,6.3161645,-6.1134424,0.16736963,-1.5250502,8.695262,1.7161214,5.498258,-3.2501357,4.674229,2.1656308,6.3162236,2.297579,-2.9288273,-4.3608394,3.1487815,4.6278324,-7.820619,8.425618,1.2582147,5.4332423,1.8149042,3.725934,-6.058434,-2.147645,0.4064545,-4.7683496,2.9448078,-7.8279963,-1.6328174,-2.0797148,-7.929018,3.6911597,-0.8528145,9.990302,-1.16508,3.7061777,1.0498494,-4.3682775,71.43713,-0.21947043,5.553706,-2.8386633,-8.079831,5.155594,4.9495234,3.642166,-2.9517233,-4.5612144,-5.548099,5.0468864,7.5381494,0.02035599,-3.6227152,-2.502822,0.17170742,2.466562,2.4299386,0.9519245,-2.8427424,-3.482253,2.3210845,-1.1979845,-2.2855148,0.22363062,-5.4271984,-1.9345841,-5.0292125,-5.086031,3.4480424,-0.8368233,-0.87949693,3.6556547,2.9589305,12.196805,1.5465481,-4.7542744,-0.38437653,1.862144,5.856939,3.4660008,2.6331944,-2.7924132,-2.0925357,-4.4145994,-8.600157,-8.990341,-1.6695557,2.1360345,-1.9499832,6.57459,-5.435597,-7.432828,1.3159164,-5.4239235,-4.538371,-0.6676246,4.1393437,0.40092376,0.5193158,5.5260463,6.9462767,-2.2961345,1.7824094,-2.146879,2.8857315,-7.223255,-1.3921388,-5.8248777,3.8741975,2.3234725,-4.2209234,0.062370844,-2.472311,-5.2648444,-0.5890623,2.9832315,3.3532054,-4.595156,-4.814479,1.7355689,3.271208,-3.2237208,0.50341153,0.6168668,3.5887945,-1.0791324,3.82,3.9426842,-3.5247517,3.483356,-0.14133509,4.970237,-5.256954,-2.0134048,-2.9410098,4.980535,-0.69636613,8.00791,-1.1532238,0.20040548,-1.337606,-0.79896253,-3.7677424,4.018776,-3.3921976,-2.0780067,-3.4548097,-1.6161268,-5.2943687,5.545758,-3.192975,-4.182218,-2.5120547,2.2711809,1.2217877,-0.064158194,1.153072,4.2449217,-6.1459875,4.3767424,-4.175826,0.78021526,-2.2414525,6.424033,-2.2369893,9.810194,-1.5321804,3.5965369,-1.1961108,-1.2520614,4.553824,2.7680898,-1.0239924,-1.5355959,0.8144384,-3.744068,0.6970382,2.3126085,-2.8031926,1.4529586,-5.7339177,-7.794855,7.2764215,2.4908924,2.8233407,4.344575,-4.659371,-7.179637,-0.08518269,5.815609,2.7711234,-6.1535926,-11.604202,-2.8280272,-4.8407607,-0.22635326,-2.7470024,0.061651386,-1.5476702,0.44375777,-1.4410236,2.7872643,-4.100446,3.3372157,4.2800536,5.662949,0.61156255,4.8534307,-1.2292618,-5.03039,10.717458,-6.300079,6.3649893,1.8946576,-1.6338773,-6.7991896,-5.53249,-7.5204625,-3.605105,-4.489832,4.8153462,-3.2518184,-1.7679466,0.9106309,0.29140955,4.7619824,3.6240568,-3.429201,-1.2658558,-2.7461798,-1.4288068,1.9018468,3.7234402,26.363113,2.320282,8.756156,-6.0393643,6.089101,-0.78722095,2.5412757,-2.0862424,-2.1279726,4.513901,-2.9757597,-6.997545,-3.5324786,3.7900279,-2.5046015,-1.1643976,4.5354366,5.8727555,-5.0674653,8.992687,-17.257336,4.0923615,-2.5154893,-2.9363213,2.9235888,-0.011124576,-1.2659137,-2.7508175,32.946346,-3.3158095,1.6990438,-5.762692,-0.4791916,3.2055335,-1.7546213,-0.39513183,3.2458782,1.4586271,2.3835247,4.0038524,-1.6705073,3.7984054,-0.5496022,-1.3948021,-2.5421703,-5.808264,2.0619285,-7.113632,9.600537,-4.718496,-0.9895347,-0.51789397,0.24782884,-4.826641,2.8867695,-4.0822015,-0.65675604,-0.21530542,-2.9988086,-2.575157,-1.3119068,1.3705698,-2.3815255,-9.941306,1.4321827,-3.7241943,1.6186479,6.559204,1.8872877,3.171074,7.386534,2.4693246,2.200563,-4.3389416,-8.468745,-0.026949527,2.200636,0.22411922,-1.2234428,1.1063915,-1.4702406,4.0161242,1.6363497,0.2146229,-6.0257215,2.0279043,-0.028546842,-10.141076,-4.7358065,-4.8107643,-6.9226923,3.4413369,-3.9099326,-1.2119813,1.4102896,-0.7045177,3.455495,2.8897421,-3.189824,-0.87728786,-0.92452335,0.69363636,8.49947,0.2229137,3.4565485,6.693513,-0.8065303,-3.5183759,-6.1239552,-0.9679145,10.248287,3.5688987,-11.283354,3.409996,6.016015,0.03563451,-2.0562444,-0.74629635,5.7672787,0.52731997,-0.50495964,2.3588533,1.1275668,-1.3423427,-8.124266,-5.7371254,-1.9709154,-2.1079986,1.2515922,2.9534848,-1.5388515,7.030606,0.48165962,-3.3657534,-7.5070205,8.269217,-1.663262,-0.32251346,3.3040528,3.9470396,3.5210893,0.83984596,-1.0832996,8.226696,0.43409538,-0.25443423,-0.88452196,1.38361,-7.7610326,2.428006,5.578485,-3.6148083,3.4844992,5.0694876,-7.0992546,-2.1815586,-7.3067117,2.7445507,-1.3679032,1.2637738,-7.718671,-2.823806,-0.23105547,2.714761,-3.8439908,5.359162,-0.92277724,-5.3874664,-3.6339138,0.42964214,-0.48781922,0.29895818,-2.7931106,-1.34122,3.2878969,-3.846434,-7.1572595
embedding_8: -1.5307454,10.10149,-15.288613,0.059966408,2.6004634,0.07454927,6.4696584,-1.8655689,-1.7198745,0.14038582,-7.6889296,7.4552665,-2.0907407,-1.796554,-2.9450216,8.156795,4.125385,5.034935,-3.1315393,11.333922,-6.377825,-2.0880573,2.0113106,5.352614,-5.4856505,-9.572406,-6.4229198,1.8538601,5.24371,-5.9375186,-2.4434938,6.728553,0.6721986,6.536859,-8.816351,5.834913,-3.694366,4.4140344,-4.337969,-4.1724205,1.8489414,0.6815829,3.0288024,-4.422862,0.20235649,6.0902886,0.613774,1.7097023,-3.0348868,1.2759126,0.7853178,-7.1242476,5.233444,-0.6484317,3.1004527,2.3883471,-1.586754,-3.7721581,1.6644359,-6.5096908,-0.55784684,-5.090392,-4.107003,-4.7707195,-7.9996,2.8897877,-2.7910395,7.3409863,7.5361342,-2.5050151,7.336077,-11.856569,-4.648316,4.78997,3.042425,4.485467,4.1544333,0.15870875,5.4471107,-1.9215118,0.11915717,-6.9545927,1.4862982,-1.4847947,13.305994,1.4960659,-2.951869,-0.97364,0.48775753,2.5283155,-16.14578,7.5420656,-2.1816988,-2.381574,-4.798159,-0.73072803,0.83911544,-0.3397524,-7.1095576,1.6466392,8.388262,-6.2211347,-5.98859,5.9522486,-3.892038,2.976537,-4.5236516,-4.8833513,8.321208,-0.654836,1.0734904,0.45317265,0.4897688,2.6586146,-0.51332915,1.6867238,2.5698175,2.283817,-4.0067997,-4.5340075,-3.3481402,2.6688433,-3.952044,-0.60037434,-3.9827669,-0.513597,2.3842914,-1.171971,-5.9818034,1.2537181,4.59274,-8.020312,-2.5655375,-11.267956,-1.2983147,0.3939896,5.515482,2.492705,-4.6235723,-1.4890708,2.7513568,-4.196286,9.948501,-5.9858956,7.2427754,-2.4063978,5.419354,-8.525607,-2.5590296,-7.3233438,0.48165962,0.17831959,1.7400382,-4.056653,-0.99786395,1.2166078,3.0684018,-5.556461,0.52958715,3.5854309,1.7858016,-1.1422893,4.830384,-1.8515645,-8.0625515,0.6545044,-0.99432117,-4.158174,-6.6980333,-6.01365,4.4303155,-17.721045,-0.053304132,3.3142028,-2.2212863,-3.8433604,2.2973857,-30.785707,-7.7051167,-5.9618955,-1.5326438,1.233339,-6.317327,2.1386743,3.6986904,4.357407,1.3394028,-32.703857,-4.6155043,7.378347,-7.7133374,5.3236814,6.342229,5.557607,3.987483,7.230608,2.0838406,3.377836,-5.708027,11.378814,-0.063094236,-4.055289,2.6926284,6.6666827,-0.51131696,-5.3496346,5.378556,-1.6479485,1.8800573,-2.7089953,-4.9480042,-5.089678,2.1757133,-9.347532,4.5564423,2.745877,-5.3888593,3.4631255,-8.150785,17.636671,-1.8001863,5.8056946,6.518888,-1.0980891,-6.7344503,-1.9468541,-1.5571761,4.016979,1.9054484,4.452645,1.3764014,-5.8035693,0.964102,-2.4331806,-0.73101974,-1.0144409,1.8107111,-10.020511,-1.4714485,1.0888857,-1.1141366,0.42903733,-0.93660176,-1.3183525,-5.065352,-3.529537,2.842716,2.0436754,-3.3045967,1.5370755,-0.0943671,2.5242815,8.768315,1.7005783,0.6409163,3.036933,-0.30858308,4.633446,-0.41787565,-8.348864,-2.157693,1.2951833,5.5263166,2.6543858,2.541913,-8.138875,0.45791063,9.917521,-0.92253804,2.4205465,-5.491847,11.509723,-6.271823,-2.2734663,-0.18901537,4.6278234,0.612805,-4.989328,2.0344791,0.05246295,-0.18357915,-2.1674058,-2.0076337,-4.4465823,2.7810595,-37.22336,4.815039,-1.2097989,-3.5911407,7.676517,1.7953452,-9.136964,-1.8850722,2.427851,5.7089977,-5.141977,-1.6060536,2.8261435,-4.5310736,-9.697191,-3.468502,-1.475243,-0.060266007,-0.7974235,-6.8141227,-0.98567843,-0.018698344,-1.5544007,7.6384854,-1.0389042,-3.0271945,-4.0396276,4.4925084,2.4781125,1.5512908,2.8820043,3.8931174,1.3705649,-1.4380041,0.4348601,-0.2694461,12.150812,-0.066237,-1.8173766,-2.0050583,-2.0088508,-3.3036742,-0.5767454,1.3630252,-4.227587,0.13420443,2.1519294,2.7627156,3.1290991,1.9416329,4.5946565,-1.5634489,1.2572311,0.018187406,-6.478047,3.2775278,-0.5273302,-6.022693,0.013873333,1.1368886,1.5963076,6.849414,-0.94280195,1.6616577,-4.571122,-5.2410574,1.1269245,-11.524144,3.6423573,7.7043,-11.227724,-8.657644,-5.713078,-4.5057325,5.009085,-3.589154,-4.365957,-2.159278,-0.6352749,3.9521224,-1.4080544,6.306478,-0.71195674,-6.509318,-3.8195968,-2.0802906,0.16738969,6.0797696,-3.1246269,-2.9148057,1.9970418,-4.38472,2.8479607,-0.6071931,10.026358,4.8930626,1.9577907,-7.8131113,8.722305,-0.71773887,7.9618073,-0.8814354,-1.141482,-0.07621178,7.585405,1.2266957,-2.427003,-3.7075965,-2.352087,4.688947,1.0736235,1.8942106,2.0160136,3.713152,4.473685,4.9014335,4.720839,-4.6866956,3.0078776,-0.4304564,3.0775454,8.250342,-1.0197761,-2.1962574,-1.6890223,5.924466,10.595942,4.7949157,-1.5876483,-8.920938,4.840225,-1.3406967,-1.3742751,-0.42436972,2.8848398,-0.5404245,1.4008962,2.243857,-2.320651,-2.3856573,-30.825153,0.4294479,2.0759466,0.43533254,-4.4370832,-0.7602695,0.8566643,-4.7413716,10.177049,-0.5693842,0.30580777,1.9840263,0.7080597,6.206079,-2.500564,7.707514,-0.5663407,1.1646975,-4.581839,4.524813,-1.2553136,-5.7161036,-0.17541355,8.534757,-5.4241104,-0.27259928,1.1437076,-1.2619239,-0.6930361,0.69622546,3.8470712,-4.01113,5.2744055,-14.268456,4.178555,1.3400171,1.5416536,-9.80954,-0.28390205,-3.3823967,-6.3483124,-2.6668842,-0.20048063,-3.1854079,-7.391339,-2.7778468,2.6348531,-1.6137708,4.2482643,0.77158403,-0.018942647,6.1555457,2.0667045,0.3346509,-2.009219,2.3530993,5.4910717,4.2600794,0.3896986,5.42236,0.31318986,2.0031853,6.109817,6.479271,11.290233,2.3447554,4.105277,-4.372759,-3.7278876,4.721147,8.041628,-1.2947136,3.3621168,3.034532,-5.2415986,-32.856655,0.884491,-3.6510077,4.363402,6.185186,7.7033644,-4.191373,-8.37335,-1.442602,8.59038,8.422187,5.4238453,-0.38010496,-0.87884235,-1.3068491,-1.1620556,8.55445,5.2947226,-1.2762995,-0.23648156,-2.9367034,-0.454015,-0.33517137,-0.2132568,-4.4333205,-0.4127495,-2.4151132,-3.1754599,-0.92624205,4.485597,1.0045646,2.780428,11.700677,2.005723,-1.477991,-2.5415897,-3.19527,3.1418037,-0.2770687,-1.7546473,-1.7179139,-12.942325,3.6080446,1.9041924,-1.7431018,-7.0898676,-4.0490665,1.6446247,5.6255927,1.9188181,1.8957574,-0.45327517,-3.0121112,1.3777593,-3.2092507,1.0162293,2.8200624,-1.4710541,3.363743,2.6523802,1.4107196,4.3674974,-0.3982944,-2.1130736,2.1797824,-0.8503752,0.85315794,-2.3897634,-0.19603863,2.363923,-1.2199985,1.7652041,4.2693057,3.8271303,-3.223009,-1.7869457,-5.6086993,-12.391185,-0.6587529,-8.071966,-1.1529266,3.2890894,-0.08133658,1.1920745,-3.4418843,-3.5844598,-2.6028328,-2.521589,5.2660604,6.0848885,4.36036,-0.43442908,-0.5501493,0.7147467,5.2354603,-0.11901566,-2.8882434,-5.7879353,0.62601537,1.494309,9.191808,-3.7559876,-5.090133,-6.8722405,4.8844805,3.0224857,-0.22611964,8.391516,1.4100842,0.07468386,0.67277974,-8.774432,4.251094,1.1059655,-3.0867887,5.9034023,-3.0449696,0.44852787,3.1623209,-7.2441053,5.1351614,-4.3532486,11.500119,-1.1731099,2.3647768,-3.9837458,1.977328,-2.5527747,2.6151128,5.952756,-2.0624287,5.196536,-3.762217,-6.969055,6.553528,-4.4663086,-11.642735,-8.363363,-7.4489183,-5.1310616,5.5661955,-1.4131385,-7.9711385,1.2880874,3.531913,6.95323,-9.528132,7.296608,1.5089325,-3.4041932,-2.7150333,3.327666,14.978934,4.9067383,-4.927831,-6.826038,3.1327794,-3.0672367,-1.1169248,0.5693118,-2.9835935,10.801756,14.556104,-3.0376358,1.0805625,0.9476556,0.0395679,2.0866191,5.973511,-2.1479614,4.3978558,-1.4298481,-0.37758887,0.7030896,-5.6665187,-1.2372737,10.688155,-1.7394501,4.653058,-4.5698395,3.081221,-1.2228864,-1.0188214,-4.721697,-3.750489,-3.3672984,-3.2606063,8.386801,-8.827825,1.5896224,-2.828095,0.6722712,5.510671,1.1213133,3.0315614,-8.388301,-6.994042,1.9741547,0.9454723,0.63748175,6.842682,-0.9902127,-0.49148506,-8.103345,0.17329523,-7.3688674,-4.961188,4.277386,-6.9506845,2.6615772,1.8181907,0.9640193,-8.999066,-2.3752763,-3.4736366,0.61714864,0.5986768,-4.7967997,-6.9117494,4.346455,0.89414,-9.423401,4.436476,0.006652138,-3.5302093,-2.6012304,2.917154,3.2548256,-12.297156,-5.9241123,-7.7776656,-0.92228705,-1.279321,2.7199988,9.946076,-0.90410155,1.0367188,-3.8615506,5.8813915,-2.3954015,-7.997099,2.7002177,-3.474198,2.9052145,-16.171955,4.8471785,-0.7820084,-1.9321139,-9.074209,4.273938,-4.819659,2.1649873,4.1326423,4.703349,-0.23440364,-1.9253086,1.135047,-3.3997896,4.2456746,5.7667193,-0.99250996,6.2945585,-1.4283769,-3.5209336,7.4646215,-6.1069546,-1.2768016,-7.0838556,-10.199901,2.2518125,-2.5930057,-4.2652855,-0.49194852,-11.901297,-7.068569,0.20800705,4.126666,6.0211606,1.3090069,2.3386078,-2.837526,3.3605092,-3.1987078,1.4179046,3.972986,4.7078466,5.257677,5.08021,-6.5254745,6.6595883,-0.5102767,-2.4916153,3.2165463,1.3710403,1.1411649,-0.5307262,6.044116,0.59168273,-0.6539691,-0.10597568,-4.8105817,1.3130387,-2.1906722,-4.6131434,-1.1539543,-0.9446302,-9.143687,-1.0215496,-2.566326,-5.005587,-0.10961991,-6.2650366,6.1263404,3.8401682,-5.388221,2.149693,-5.869958,2.0264318,7.055751,5.719862,-6.436164,-3.5879033,2.159434,-7.1182027,6.883999,-7.227068,3.6152854,1.757741,-2.4575596,-6.2392297,-8.841999,4.5922127,10.127631,-4.5278115,-3.985367,1.515768,1.7370667,-2.427908,-2.4415963,7.466839,4.783941,-8.933495,-3.4622626,0.18949492,-7.2463183,-0.6602472,-3.9495678,-36.881363,-7.7691965,-3.1671011,0.01590921,-0.6630316,2.918825,1.3668585,1.0293308,0.06553201,-3.2778902,-3.200983,6.9380794,4.6303215,-5.661997,10.963954,-5.1676126,-9.090148,8.686882,-6.5071216,1.6800797,2.1638772,8.28151,0.77876645,-1.4417634,-2.10577,-6.1272044,-1.000023,-5.720746,-38.057327,1.975781,5.643983,2.0405872,-0.14927784,5.3934627,-5.7179575,0.52619433,3.896681,5.2875967,-0.73607254,-5.5680685,-4.026418,-8.514456,-5.0586495,-4.179742,2.4599586,-2.3931682,10.810487,5.820612,2.2360053,7.3208337,9.936332,0.27277553,4.0894876,-0.7459636,-1.6536542,2.4712243,-5.6931257,-4.2767706,-0.41463,-0.49572793,2.2313805,11.5219345,-2.4031165,-6.2381673,5.1389823,-3.3538418,-0.6085451,4.496865,-5.774427,2.197871,-3.2632725,-6.6119137,-6.418411,8.543311,-5.3364525,-3.0855792,4.196116,-6.8034363,-0.4473168,9.3807125,-5.465321,0.5003935,-4.2532225,9.084962,-0.43279257,-2.1976814,1.269796,-1.0654547,-3.4657192,-2.0444126,6.665546,2.0028996,-2.142714,3.3419242,4.711505,9.973179,-7.9132266,-6.0265193,-3.1852686,1.5975392,-8.95137,2.410283,8.509741,2.8083818,-1.2835828,-3.7994757,-3.5980098,1.991152,-6.436349,-1.0360616,6.426645,-0.24725258,-0.201083,-3.4177191,15.438421,-3.0959089,1.0429559,-4.3488126,-3.0296185,0.21603724,7.0934205,2.0401855,-0.24053033,9.152488,-3.6808023,4.2278137,0.06620529,-5.572241,-1.1799928,-8.748362,0.6139158,1.3320284,5.972571,-3.3223557,-1.2985864,-6.509477,6.110823,4.0044365,0.8163394,-1.078033,-5.01398,-1.2985197,-0.05463402,-0.1695166,-6.6953,-1.5778724,5.3513517,3.1576352,1.3195498,-4.646029,10.977594,0.39155135,3.9638972,13.318763,-2.4840555,-1.0636314,-4.094644,2.5153105,-5.429235,10.226656,0.37246442,2.784465,3.529498,3.7438416,6.0882664,-8.481097,-6.8101616,1.3505701,2.5898356,-1.9657559,6.6844826,-0.05077137,2.1665695,4.191826,-18.55354,-9.386769,1.5994947
